float hidden0_weight[20916] = {-1.197225526e-01,
-1.308876723e-01,
1.279829443e-01,
1.422266960e-01,
-8.388629556e-02,
-2.973265760e-02,
6.854645163e-02,
9.693460539e-03,
9.576197714e-02,
6.874773651e-02,
-4.512870684e-02,
2.721770853e-02,
9.526345879e-02,
-1.315021962e-01,
-1.515987515e-01,
-3.065941855e-03,
-5.394553021e-02,
-3.961102571e-03,
-1.084849238e-01,
6.324794888e-02,
-8.405339718e-02,
1.274422109e-01,
1.315400898e-01,
4.743979871e-02,
9.423813224e-02,
1.507320702e-01,
1.174621135e-01,
-1.302638799e-01,
5.947410688e-02,
4.846245423e-02,
-1.216381714e-01,
1.328426600e-01,
4.579849169e-02,
7.073917426e-03,
1.362438202e-01,
8.560962975e-02,
-3.315414861e-02,
6.593346130e-03,
8.796238154e-02,
7.921493612e-03,
-8.566263132e-03,
4.584024101e-02,
8.346485905e-03,
1.681471765e-01,
1.052130014e-02,
1.253623795e-02,
-9.430763870e-02,
1.227095257e-02,
9.472419322e-02,
-1.104033515e-01,
1.627023332e-02,
7.330635190e-02,
8.114273101e-02,
-3.718871251e-02,
-7.121320814e-02,
1.093859226e-01,
1.331622154e-01,
-1.113566663e-02,
-1.140556484e-01,
6.650372595e-02,
5.829283968e-02,
-6.009467319e-02,
-1.456282288e-02,
-2.495956793e-02,
-1.156888753e-01,
3.823579103e-02,
1.316909343e-01,
-7.262644917e-02,
-2.942847461e-02,
4.799469560e-02,
-1.016134694e-01,
9.243563563e-02,
-1.218149588e-01,
1.130054668e-01,
3.877784684e-02,
-5.869730189e-02,
1.210494563e-01,
-9.674332291e-02,
-1.283324510e-01,
-8.085688460e-04,
-6.470779330e-02,
-3.126719967e-02,
4.602020606e-03,
-1.284245960e-02,
-1.388146281e-01,
-6.997694820e-02,
6.691951305e-02,
9.797104634e-03,
1.010025069e-01,
-2.912244573e-02,
-1.262167692e-01,
-6.403603405e-02,
1.139076129e-01,
-6.259479374e-02,
-6.381462514e-02,
-9.534461051e-02,
7.188054919e-02,
8.433697373e-02,
1.029533073e-01,
5.659172684e-02,
8.381710202e-02,
-4.402891919e-02,
-5.492404848e-02,
-1.093000174e-01,
-4.863678664e-02,
-1.528436691e-01,
4.595210776e-02,
-1.035664082e-01,
1.031058505e-01,
-9.675820172e-02,
1.445654482e-01,
1.538113952e-01,
1.003477499e-01,
-1.647138968e-02,
1.276710331e-01,
5.146064609e-02,
-9.455582500e-02,
1.144768968e-01,
7.486264408e-02,
1.338991523e-01,
-2.587212250e-02,
-6.425406318e-03,
9.834606200e-02,
-1.165621448e-02,
-1.636368223e-02,
1.133553311e-01,
1.288046837e-01,
-1.232088730e-01,
2.542180754e-02,
-1.019394621e-01,
8.782704361e-03,
-6.238542870e-02,
1.259557158e-01,
1.187727042e-02,
3.558203578e-02,
7.452398539e-02,
-8.339539915e-02,
-6.256257743e-02,
-1.098148450e-01,
1.443016827e-01,
6.976266950e-02,
-9.770762920e-02,
-1.998391934e-03,
-6.225749105e-02,
5.550336838e-02,
-1.108164042e-01,
-8.761191368e-02,
-8.068372309e-02,
-2.483428642e-02,
-8.840877563e-02,
9.211827815e-02,
4.581444710e-02,
5.531742424e-02,
1.251788437e-01,
-6.700679194e-03,
-1.002410129e-01,
1.122839600e-01,
8.328504860e-02,
-1.281277984e-01,
-2.750013582e-02,
-1.051640362e-01,
-5.023041368e-02,
-5.469346419e-02,
-1.052169651e-01,
-7.527824491e-02,
-1.780524664e-02,
-1.110926047e-01,
-9.181514382e-02,
5.012365058e-02,
1.195487604e-01,
8.874442428e-02,
-4.015879240e-03,
1.277975142e-01,
-9.837196022e-02,
5.329055712e-02,
3.862410784e-02,
-3.294395655e-02,
3.375608847e-02,
3.770243749e-02,
9.428267181e-02,
1.054103449e-01,
-1.285257190e-01,
-5.426734686e-02,
-9.239746630e-02,
-4.480180144e-02,
5.158805475e-02,
-8.961554617e-02,
1.239581499e-02,
2.432935312e-02,
-1.674481928e-01,
-8.961892873e-02,
1.076488793e-01,
4.522711784e-02,
-3.025487438e-02,
-3.574799001e-02,
-1.398912966e-01,
-1.258293986e-01,
1.163818240e-01,
-4.633216187e-03,
-4.473972321e-02,
-8.757738769e-02,
-1.256831586e-01,
5.688983575e-02,
-8.110982180e-02,
-1.120929699e-02,
1.298001111e-01,
1.083640903e-01,
9.651563317e-02,
7.308248430e-02,
7.975472510e-02,
-1.332542021e-02,
4.403392971e-02,
2.613260178e-03,
-4.862738401e-02,
-6.811639667e-02,
-4.039240628e-02,
-1.154588908e-01,
-2.404786088e-02,
8.180296421e-02,
8.278853446e-02,
-5.645504221e-02,
5.994740501e-02,
1.971539855e-02,
1.420807280e-02,
-1.132158712e-01,
-3.572795540e-02,
-7.975944132e-02,
1.072897390e-01,
1.232156754e-01,
-6.124472618e-02,
1.021161154e-01,
1.253079772e-01,
-3.583954240e-04,
-7.564561814e-02,
-6.708540022e-02,
-6.120371819e-02,
-1.335628182e-01,
-9.873230755e-02,
-7.176979631e-02,
6.383451819e-02,
1.230704412e-01,
-1.483482867e-01,
-2.950795554e-02,
-9.784210473e-02,
4.709026963e-02,
5.492595211e-02,
8.388046920e-02,
1.689023338e-02,
4.538282752e-02,
-1.100135744e-01,
8.701789379e-02,
-6.812534481e-02,
5.437861010e-02,
-9.022382437e-04,
1.334762126e-01,
-5.708467960e-02,
-1.440205276e-01,
-7.760142442e-03,
-3.919252381e-02,
-8.485559374e-02,
-9.867762774e-02,
1.319605559e-01,
1.571093798e-01,
9.148743004e-02,
4.048657045e-02,
3.405867144e-02,
-8.232089691e-03,
-5.301195383e-02,
-9.589985013e-02,
4.895020649e-02,
-1.383721977e-01,
2.335192263e-02,
6.627114117e-02,
-1.934258267e-02,
-2.945361659e-02,
-1.399317086e-01,
2.397749759e-02,
1.637255400e-02,
6.389014423e-02,
-2.379736491e-02,
6.083628908e-02,
8.799100667e-02,
1.403246671e-01,
-9.576483071e-02,
-2.588799410e-02,
2.948823012e-02,
-1.054699942e-01,
1.406174302e-01,
-3.746008500e-02,
9.714240581e-02,
-3.494920209e-03,
-4.545768350e-02,
-2.046382800e-02,
-3.055295348e-02,
4.083861038e-02,
9.391860664e-02,
9.734296054e-02,
1.522417367e-01,
-1.044261307e-01,
4.530438408e-02,
-9.832017869e-02,
1.257062107e-01,
5.669268966e-02,
-8.558166027e-02,
6.165777519e-02,
-5.755411834e-02,
1.342246979e-01,
7.694279402e-02,
-7.579773664e-02,
-1.337894946e-01,
-1.076843739e-01,
-8.941337466e-02,
-1.102027763e-02,
1.257101595e-01,
1.156015396e-01,
6.193190441e-02,
5.436733738e-02,
1.105316505e-01,
1.520351216e-04,
8.299872279e-02,
-3.397107869e-02,
1.486495230e-02,
4.865120724e-02,
-9.743085504e-02,
-1.338714659e-01,
-8.379149437e-02,
-5.696241278e-03,
7.561844587e-02,
-5.563108250e-02,
3.930196539e-02,
3.389291093e-02,
3.693521768e-02,
4.981318489e-02,
7.784545422e-02,
-7.652729005e-02,
1.266247332e-01,
-1.280524880e-01,
-1.056129038e-01,
1.229849607e-01,
-9.803098626e-03,
-7.289934158e-02,
-5.321717262e-02,
-1.624077372e-02,
6.506444514e-02,
4.252294078e-02,
8.770803362e-02,
1.059734225e-01,
-5.557431281e-02,
-3.046548367e-02,
2.349208109e-02,
7.340528071e-02,
3.113585338e-02,
-8.109658211e-02,
-1.077798977e-01,
6.231597438e-02,
-4.328589514e-02,
-1.161639318e-01,
-3.872848675e-02,
4.263081774e-02,
2.820784785e-02,
-1.157923341e-01,
-2.245881036e-02,
7.342824340e-02,
3.947303817e-02,
1.100496873e-01,
-3.485390544e-02,
3.906014189e-02,
5.055365339e-02,
-2.873722650e-02,
6.755262613e-02,
-3.239705227e-03,
3.134892136e-02,
-9.860094637e-02,
-8.546580374e-02,
-4.017519578e-02,
1.167852208e-01,
-1.153116375e-01,
1.378428936e-01,
2.920571342e-02,
1.594396494e-02,
-1.015331689e-02,
-7.664032280e-02,
-3.279873356e-02,
-1.398043036e-01,
-3.986307979e-02,
3.573883325e-02,
1.034611240e-01,
4.261515662e-02,
1.320201308e-01,
-2.929927967e-02,
8.102808893e-02,
1.212918758e-02,
2.453421615e-02,
-1.027241722e-01,
-1.208986714e-01,
2.168022096e-03,
-9.761444479e-02,
1.163543314e-01,
1.393381655e-01,
-3.299450502e-02,
-4.160889238e-02,
1.354938745e-01,
6.716509908e-02,
-7.725279313e-03,
-1.682559960e-02,
9.432742000e-02,
6.896376610e-02,
5.274000764e-02,
-1.138136461e-01,
-1.439093351e-01,
1.094759256e-01,
-6.717130542e-02,
-6.008144096e-02,
2.993806824e-02,
-1.398416311e-01,
8.692508936e-02,
5.841447972e-03,
-1.204446554e-01,
6.674760580e-02,
5.400632322e-02,
-1.117316782e-01,
-1.101568863e-01,
-2.303774934e-03,
-9.371373802e-03,
9.398756921e-02,
4.362377524e-02,
8.775920421e-02,
-1.109102815e-01,
7.873668522e-02,
1.024728268e-01,
-1.159669384e-01,
-1.485018246e-02,
-3.206044808e-02,
4.464088380e-02,
-1.126402467e-01,
1.242429912e-01,
1.537362672e-02,
-3.308377787e-02,
1.422667131e-02,
-2.688792162e-02,
1.010400206e-01,
9.496001154e-02,
8.820099756e-03,
-9.410004318e-02,
-1.424568594e-01,
1.219839677e-01,
2.941510640e-02,
1.900310512e-03,
1.052798256e-01,
8.185211569e-02,
1.080624387e-01,
1.498789042e-01,
7.554436475e-02,
-1.122128963e-01,
-1.097263843e-01,
-1.340456679e-02,
-4.533714615e-03,
9.992159158e-02,
-1.247505918e-01,
-8.615222573e-02,
-1.332395375e-01,
-2.766379714e-02,
-4.696109146e-02,
7.861143909e-03,
8.097022027e-02,
-1.242902577e-01,
2.857057936e-02,
3.274951503e-02,
-1.008975953e-01,
6.961317360e-02,
-1.029782579e-03,
4.483237490e-02,
-6.360279024e-02,
-1.275636852e-01,
-7.025133073e-02,
-2.971490845e-02,
5.640500411e-02,
9.681785107e-02,
-1.750021428e-02,
-2.752739005e-02,
2.523264103e-02,
-8.919699490e-02,
-9.699206054e-02,
-1.278153211e-01,
7.428228855e-02,
-8.058828115e-02,
9.509181976e-02,
-2.316110581e-02,
-7.689378411e-02,
8.414660394e-02,
9.582228959e-02,
-1.048618257e-01,
-1.062135920e-01,
1.777461916e-01,
-6.246311963e-02,
-7.606898248e-02,
-7.487241179e-02,
-1.509701274e-02,
-6.120056659e-02,
9.641216695e-02,
1.041431725e-01,
1.267144829e-01,
-2.129014209e-02,
-1.414057463e-01,
-4.626664892e-02,
-8.364330232e-02,
1.060583740e-01,
1.142283231e-01,
-1.162733603e-02,
4.247746244e-02,
-1.203145459e-01,
1.277222633e-01,
1.222310588e-01,
-1.350932717e-01,
1.402794123e-01,
-8.595831692e-02,
-1.007145718e-01,
-1.114739031e-01,
5.142336711e-02,
-9.960254282e-02,
9.602328390e-02,
-1.043419540e-01,
5.353592709e-02,
-8.041612804e-02,
-7.714845240e-02,
-5.021456257e-02,
6.459597498e-02,
-2.864989825e-02,
-9.169068933e-02,
1.268059164e-01,
5.980554596e-02,
7.941158861e-02,
5.827791244e-02,
4.232249036e-02,
4.539055005e-02,
1.203838140e-01,
7.155901194e-02,
9.069401771e-02,
8.811970055e-02,
-4.153454676e-02,
9.429588914e-02,
6.553331763e-02,
9.976280481e-02,
-2.219132707e-02,
-1.158936545e-01,
6.636922061e-02,
6.847615540e-02,
7.117968798e-02,
-1.238473356e-01,
1.097993776e-01,
-8.304468542e-02,
-7.771637291e-02,
-1.040023342e-01,
5.957734957e-02,
-2.561771777e-03,
5.616557971e-02,
-1.030197963e-01,
-1.346937269e-01,
3.573149443e-03,
3.867007792e-02,
-5.443451554e-02,
4.541027918e-02,
5.547305942e-02,
1.797359623e-02,
1.259923875e-01,
-1.289665550e-01,
-1.314548701e-01,
-8.664809167e-02,
1.389990151e-01,
5.602503940e-02,
-9.698763490e-02,
9.919684380e-02,
-1.254992783e-01,
-5.675717816e-02,
-1.717400551e-02,
-1.184323803e-01,
1.288628429e-01,
-6.473885477e-02,
1.046917289e-01,
9.935603291e-02,
-5.295142159e-02,
-5.190955102e-02,
-7.565744221e-02,
-7.961726189e-02,
-4.994603992e-02,
-4.131161794e-02,
4.156079888e-02,
5.325856060e-02,
2.402504906e-03,
-4.635483399e-02,
7.738400996e-02,
4.029541835e-02,
-1.121629998e-01,
4.925613105e-02,
-1.033811048e-01,
-2.420689166e-02,
-5.089430511e-02,
3.077076375e-02,
-8.814103156e-02,
1.102030575e-01,
-7.646064460e-02,
-2.567202784e-02,
-1.385952830e-01,
-2.721287776e-03,
3.930255026e-02,
1.261353493e-01,
-8.184371982e-04,
5.025454983e-02,
-6.525103934e-03,
1.336852312e-01,
-2.159357257e-02,
5.381241068e-02,
-7.702138275e-02,
-1.222027540e-01,
8.344916254e-02,
6.044386700e-02,
4.608952254e-02,
8.235742897e-02,
-3.920631483e-02,
-1.017582696e-02,
-4.268303886e-02,
-1.339087337e-01,
1.233908385e-01,
1.249506548e-01,
-1.094390173e-02,
1.510158554e-02,
1.529992372e-02,
4.478362575e-02,
8.492175490e-02,
-6.214056909e-02,
5.581239238e-02,
-1.248085424e-01,
4.291655496e-02,
-3.775011376e-02,
-9.860336781e-03,
-3.603170812e-02,
1.153571680e-01,
-8.301567286e-02,
-1.181525439e-01,
-6.942202896e-02,
-1.238837019e-01,
-9.065915644e-02,
-5.151364207e-02,
1.355713457e-01,
-4.819729552e-02,
-2.563000843e-02,
-7.121814042e-02,
-4.493505508e-02,
-9.199561179e-02,
-4.017861187e-02,
-8.603551239e-02,
-1.325083077e-01,
9.428436309e-02,
1.228866652e-01,
6.710565835e-02,
-1.032068357e-01,
7.808921486e-02,
-1.070194170e-01,
4.600347206e-02,
-1.298164669e-02,
2.940938575e-03,
1.006540880e-01,
4.289355874e-02,
1.505777538e-01,
-1.447913200e-01,
-1.190061644e-01,
-1.360210124e-02,
7.440768182e-02,
1.173502281e-01,
-1.394214928e-01,
-1.337447762e-01,
-1.078486592e-01,
3.490592539e-02,
1.519338340e-01,
-5.035718530e-02,
-7.876025885e-02,
7.964736968e-02,
-1.322404146e-01,
-4.811615869e-02,
-1.011924446e-01,
-1.336549222e-01,
-2.035674453e-02,
7.292366773e-02,
6.026367191e-03,
3.364007175e-02,
-4.930061847e-02,
-9.477332979e-02,
-3.840130940e-02,
-5.707905442e-02,
-7.888154685e-02,
1.142304949e-02,
-1.007124409e-01,
-4.003056511e-02,
3.490263224e-02,
-9.566250443e-02,
-1.248143911e-01,
3.314941889e-03,
-1.417189986e-01,
-8.678371459e-02,
2.585445158e-02,
3.187251091e-02,
3.743078187e-02,
1.091406271e-01,
-8.199547976e-02,
1.029112339e-01,
-5.985759571e-02,
5.986822769e-02,
-8.776696771e-02,
5.738539621e-02,
-3.884961596e-03,
-2.042688057e-02,
-6.170427427e-02,
-2.155742049e-02,
-1.897824928e-02,
-6.174785271e-02,
-1.472613961e-02,
4.468308762e-02,
1.312130243e-01,
1.066493765e-01,
-9.190619737e-02,
-8.402258158e-02,
-8.310987055e-02,
-7.060531527e-02,
-2.311687171e-02,
-5.417181551e-02,
-1.209997758e-01,
-9.919952601e-03,
-3.043908626e-03,
-9.630464017e-03,
1.196217537e-01,
-5.025912076e-02,
-1.244461536e-01,
1.282312721e-01,
7.539101411e-03,
6.678339094e-02,
-1.753380746e-01,
1.321890801e-01,
-1.141941324e-01,
3.925558925e-02,
-9.991070628e-02,
-7.832165807e-02,
2.667272836e-02,
-1.556265447e-02,
-1.017480642e-01,
-1.041540802e-01,
-1.012795642e-01,
-3.961843252e-02,
1.092581600e-01,
1.500169560e-02,
7.416684530e-04,
-1.288177669e-01,
-6.496986747e-02,
9.065129608e-02,
8.402331918e-02,
-1.330620199e-01,
-4.179520905e-02,
-1.912903972e-02,
1.677575707e-02,
1.982768252e-02,
-7.931823842e-03,
-7.293024659e-02,
-1.020600870e-01,
2.434475173e-04,
-5.038260669e-02,
-5.357085541e-02,
-4.585897550e-02,
-8.232880384e-02,
-3.649184108e-02,
-1.477642637e-02,
-6.593649834e-02,
4.776359349e-02,
-1.387757659e-01,
-1.132427976e-01,
-2.477373928e-02,
4.592251778e-02,
2.960586362e-02,
-1.156087667e-01,
-3.759083338e-03,
7.247073203e-02,
-7.723337412e-02,
5.879730918e-03,
-9.466243535e-02,
-4.845295101e-02,
8.036414534e-02,
-2.182351798e-02,
1.280300170e-01,
7.568647712e-02,
-4.882616922e-02,
-6.118627265e-02,
-1.505071390e-02,
-5.382299796e-02,
-2.918304503e-02,
-4.281303659e-02,
8.522554487e-02,
-1.454328839e-02,
1.212570257e-02,
-1.022870168e-01,
-8.080136776e-02,
-1.312061846e-01,
7.941552997e-02,
-7.945960388e-03,
-3.430880234e-02,
-9.948125482e-02,
-7.375498302e-03,
-1.214744225e-01,
2.428934164e-02,
-1.193742231e-01,
1.228681486e-02,
-4.322735593e-02,
-9.237541258e-02,
6.819292158e-02,
3.596415743e-02,
9.281886369e-02,
8.523246273e-03,
-2.299491316e-02,
-1.338873804e-01,
-3.793307394e-02,
1.354826391e-01,
2.374742366e-02,
-8.131333441e-02,
-1.336939037e-01,
-3.201544657e-02,
1.010606140e-01,
4.484420642e-02,
1.149828881e-01,
4.700032622e-02,
-5.898687989e-02,
-1.221605763e-01,
1.916018501e-02,
1.166705489e-01,
-8.383843303e-02,
-8.344373852e-02,
-5.938735604e-02,
5.313742906e-02,
-1.260446757e-01,
-1.072151065e-01,
1.027405541e-02,
-5.489647761e-02,
-4.822588526e-03,
-4.538741335e-02,
1.410348266e-01,
1.483568549e-01,
1.314779818e-01,
-2.228609845e-02,
6.782990694e-02,
1.676996797e-02,
-8.468516916e-02,
2.250816673e-02,
-1.421812922e-01,
-1.340640783e-01,
-8.107654005e-02,
7.935751230e-02,
-1.256773155e-02,
-5.021884292e-02,
2.018458210e-02,
-1.289343387e-01,
-3.288363107e-03,
2.432646416e-02,
-8.715420216e-02,
2.572841756e-02,
1.328409165e-01,
-4.478247836e-02,
1.796800760e-03,
1.176490411e-01,
8.165769279e-02,
-1.035910919e-01,
8.852822334e-02,
1.305257976e-01,
-7.850714773e-02,
4.117880482e-03,
1.305250674e-01,
1.187832281e-01,
-1.155722141e-01,
1.025492698e-01,
-1.357704848e-01,
1.412661821e-01,
1.368531138e-01,
4.064256698e-02,
-8.559731394e-02,
-2.452313341e-02,
5.209731311e-02,
8.839562535e-02,
-1.029187739e-01,
-1.149670482e-01,
1.621523313e-02,
8.889313787e-02,
-1.368577629e-01,
-5.493693799e-02,
2.748782188e-02,
-5.090261251e-02,
-9.916591644e-02,
-3.118512034e-02,
2.355447225e-02,
-1.064868197e-01,
-2.183626406e-02,
-2.469182760e-02,
1.289158911e-01,
6.168924738e-03,
1.268350333e-01,
-7.265614718e-02,
1.384816021e-01,
7.644759864e-02,
-7.548929006e-02,
-3.597608581e-02,
-1.515276134e-01,
-1.172668934e-01,
3.795207664e-02,
1.098768786e-02,
1.846579136e-03,
-2.389426343e-02,
-1.045005843e-01,
2.123521827e-02,
-9.143138677e-02,
6.486196816e-02,
-6.055187434e-02,
-1.504171342e-01,
1.335517876e-02,
3.118743934e-02,
3.812887007e-03,
1.008373201e-01,
-7.578367740e-02,
4.446830601e-02,
2.006560266e-01,
3.051230498e-02,
-5.500060692e-02,
1.485157385e-02,
-2.975772694e-02,
3.352615982e-02,
1.146896705e-01,
-5.471739918e-03,
1.159807444e-01,
3.986172378e-02,
-1.436879784e-01,
2.982719243e-02,
-2.366734296e-02,
9.322310239e-02,
5.656659137e-03,
-5.934863165e-02,
1.119261459e-01,
1.136175096e-01,
-1.345879119e-02,
-1.008440331e-01,
2.785938233e-02,
2.745742351e-02,
7.578597218e-02,
1.223482788e-01,
1.055898964e-01,
-2.038180362e-03,
1.384142488e-01,
3.157288954e-02,
-4.631597176e-02,
1.443419978e-02,
8.085329831e-02,
9.553135186e-02,
5.612135306e-02,
-6.264509168e-03,
-1.112050638e-01,
2.925279550e-03,
8.254595101e-02,
-1.129705533e-01,
-1.325964183e-01,
1.149592996e-01,
1.207280532e-01,
4.721443355e-02,
1.199240685e-01,
7.942904532e-02,
2.148634568e-02,
-9.834319353e-02,
-6.433214247e-02,
1.449860185e-01,
-4.440798238e-02,
-1.001290306e-01,
-6.549239904e-02,
-6.512477249e-02,
-6.295882165e-02,
9.878357500e-02,
1.873213612e-02,
-6.120441854e-02,
-1.377482992e-02,
-1.077937260e-01,
-1.200540438e-01,
6.158529967e-02,
1.185542867e-01,
-9.996920824e-02,
9.430347383e-02,
-1.451301016e-02,
-1.022779942e-01,
1.083773673e-01,
-7.110662758e-02,
2.655597404e-02,
-4.766148515e-03,
1.749216914e-01,
-1.423485130e-01,
5.108589306e-02,
7.253041863e-02,
-1.114990488e-01,
8.136684075e-03,
7.395108044e-02,
7.388562430e-03,
6.786035746e-02,
-1.234454438e-01,
-6.553036720e-02,
4.279591143e-02,
8.123634756e-02,
-6.110887602e-02,
8.378107846e-02,
6.967979670e-02,
1.369387209e-01,
-4.443076253e-02,
-6.803685427e-02,
-6.580057740e-02,
-1.726524085e-01,
1.230759770e-01,
-1.971450076e-02,
-5.070228130e-02,
6.577699631e-02,
5.716538429e-02,
1.343958229e-01,
-2.945690602e-02,
8.693876117e-02,
-9.979161620e-02,
1.306773722e-01,
2.782257274e-02,
3.856523195e-03,
-1.369998455e-01,
-1.350449175e-01,
-1.189139411e-01,
6.910490245e-02,
9.410936385e-02,
3.790879995e-02,
-5.935689434e-02,
1.724263094e-02,
-3.145814687e-02,
1.500716954e-01,
1.687359437e-02,
-5.131083727e-02,
-1.242030598e-02,
-1.369131953e-01,
-3.322255611e-02,
1.902782544e-02,
-1.796858385e-02,
-7.452343404e-02,
-1.307036579e-01,
-1.348281652e-01,
6.886313856e-02,
3.691322356e-02,
-6.344564259e-03,
1.076986268e-01,
-1.736430824e-02,
-1.191040054e-01,
1.057691276e-01,
1.315945238e-01,
7.345392834e-03,
-1.440303028e-02,
-7.270944118e-02,
1.128605157e-01,
-7.100778632e-03,
-6.455041468e-02,
7.881056517e-03,
1.278641075e-01,
-1.040072963e-01,
3.933582455e-02,
-2.697814442e-02,
-1.027106494e-01,
-4.452260211e-02,
3.904536739e-02,
3.107673116e-02,
-1.324800253e-01,
-2.350995503e-02,
5.000173673e-02,
-6.771880388e-02,
1.097950190e-01,
-6.524582207e-02,
1.048813537e-01,
8.923139423e-02,
-4.748782143e-02,
-1.455941200e-01,
-1.042110473e-01,
1.160077751e-01,
1.297423337e-02,
-7.594880462e-02,
1.244468763e-01,
1.062998548e-02,
-2.949315310e-02,
8.829684556e-02,
4.938645661e-02,
-7.480213791e-02,
1.324633211e-01,
1.497999877e-01,
-2.787523158e-02,
9.963378310e-02,
9.338049591e-02,
-3.674106905e-03,
-1.394544393e-01,
-4.993169568e-03,
-9.551503509e-02,
-7.104340941e-02,
-8.324630558e-02,
-3.598364443e-02,
-9.310427308e-02,
-1.516698748e-01,
-1.295119226e-01,
-9.486618452e-03,
4.758048803e-02,
-1.286073774e-01,
4.425806552e-02,
-6.752069294e-02,
4.531618208e-02,
-4.864479229e-02,
1.227843165e-01,
6.754165888e-02,
-8.046706766e-02,
-5.889698118e-02,
-1.613702625e-02,
1.316362917e-01,
-8.185628057e-02,
-9.398711473e-02,
1.029012538e-02,
1.076710373e-01,
-2.722120099e-02,
-3.693610430e-02,
1.938195713e-02,
1.182876006e-01,
-5.656683352e-03,
8.125815541e-02,
5.060987547e-02,
6.749834120e-02,
-9.397803992e-02,
1.159385312e-02,
9.478264302e-02,
-7.498840988e-02,
3.406971460e-03,
-1.455019265e-01,
-8.577667177e-02,
-1.120475084e-01,
-4.574475810e-02,
-1.067126691e-01,
-1.605192572e-02,
-1.192361712e-01,
-1.306955516e-01,
-9.769103676e-02,
5.385849252e-02,
-8.814483136e-02,
9.267922491e-02,
4.725255445e-02,
-7.335381210e-02,
-6.999087334e-02,
-3.339350224e-02,
1.596983522e-02,
6.084313989e-02,
-1.055439413e-01,
1.219279617e-01,
8.548187464e-02,
1.244993657e-01,
-2.845683694e-02,
-1.021771133e-01,
5.811244249e-02,
1.206446588e-01,
1.361310184e-01,
-1.394598633e-01,
-1.198330820e-01,
-1.070499718e-01,
-7.436160743e-02,
1.288049519e-01,
-4.808254167e-02,
7.659453154e-02,
-1.421086788e-01,
7.081610616e-03,
-1.076390222e-01,
5.440656096e-02,
5.316219479e-02,
-7.782166451e-02,
-1.608489198e-03,
-2.291436680e-02,
-7.129480597e-03,
-1.444201767e-01,
-1.372314543e-01,
9.731275588e-02,
-4.265645146e-02,
-9.972655773e-02,
8.934393525e-02,
7.159791142e-02,
-1.165182330e-02,
-3.209351748e-02,
8.569034189e-02,
-5.072290450e-02,
6.024964154e-02,
1.382060051e-01,
8.112941682e-02,
-1.373616792e-02,
-9.111075103e-02,
9.259875119e-02,
-5.932746455e-02,
-9.455832094e-02,
-7.077796012e-02,
1.019761935e-01,
-8.951232582e-02,
1.080117002e-01,
-2.585773822e-03,
2.374638803e-02,
-5.672333762e-02,
-2.444242872e-02,
-6.237220392e-02,
3.916186839e-02,
9.369563311e-02,
-5.666832253e-02,
6.545253843e-02,
1.367349178e-01,
-7.702812552e-02,
-1.157162786e-01,
7.437436283e-02,
8.258239925e-02,
1.364401132e-01,
-8.844097704e-02,
7.848542929e-02,
1.036901623e-01,
-2.349855378e-02,
-7.655649632e-02,
9.862934798e-02,
-1.845357381e-02,
6.947958469e-02,
-1.067973748e-01,
1.262018234e-01,
-4.152185842e-02,
-3.106587566e-02,
-5.955030024e-02,
9.963524528e-03,
6.861363351e-02,
5.101615191e-02,
8.435241878e-02,
-9.838520736e-02,
5.387639254e-02,
-4.128673300e-02,
1.005840767e-02,
-5.669223890e-02,
-8.804484457e-02,
5.382683501e-02,
-7.432068884e-02,
-8.767877519e-02,
1.739530452e-02,
-3.488155827e-02,
1.203098893e-01,
1.798581332e-02,
1.311890930e-01,
-9.863810241e-02,
-1.110013947e-01,
-1.441978216e-01,
-5.986086652e-02,
1.255332958e-02,
-3.164274618e-02,
-1.346749812e-01,
-1.352485269e-01,
-1.052370816e-01,
-4.582159687e-03,
1.506310552e-01,
-7.013630122e-02,
-7.304730266e-02,
3.506974876e-02,
6.108779833e-02,
-4.012547806e-02,
-1.762821712e-02,
1.480734050e-01,
1.524465829e-01,
-9.233345091e-02,
1.298342645e-01,
-1.377614439e-01,
-8.707083017e-02,
5.974598695e-03,
-1.025946662e-01,
-3.731879219e-02,
3.795844316e-02,
-9.378048778e-02,
3.372512758e-02,
6.376684457e-02,
-9.687592834e-02,
-7.181719691e-02,
-1.266755164e-01,
6.149758399e-02,
-4.242476448e-02,
-1.451817453e-01,
1.438202560e-01,
1.514356285e-01,
1.017856374e-01,
-2.394086868e-02,
9.340698272e-02,
-8.648438007e-02,
-8.579301089e-02,
7.542300969e-02,
9.581506252e-02,
-7.246898860e-02,
-9.434182197e-02,
-6.232897937e-02,
1.126463115e-01,
6.337424368e-02,
-3.765445901e-03,
1.082182750e-01,
-4.457245767e-02,
-8.809237927e-02,
-1.180524528e-01,
4.725077376e-02,
-8.132553101e-02,
3.696142510e-02,
3.088676371e-02,
7.997140288e-02,
3.138123825e-02,
-5.624501780e-02,
-6.500460207e-02,
9.779975563e-02,
7.969559170e-03,
-3.957929090e-02,
-1.522279680e-01,
-1.749327779e-02,
-9.678717703e-02,
-3.284990042e-02,
1.766313612e-02,
-6.979111582e-02,
-8.589991182e-02,
8.516172320e-02,
-1.391598880e-01,
-1.066356003e-01,
-1.468336433e-01,
-1.473904550e-01,
2.311796881e-02,
1.580388993e-01,
-5.487275310e-03,
1.095553711e-01,
-3.777814284e-02,
7.952730358e-02,
-1.213253736e-01,
-9.958998300e-03,
6.192415208e-02,
1.367489994e-01,
3.945874795e-02,
9.575695544e-02,
1.170781776e-01,
1.268016268e-02,
1.735848486e-01,
-8.290678263e-03,
3.601611033e-02,
6.122983620e-02,
1.069751754e-01,
-1.011538971e-02,
-1.105530038e-01,
-1.263300180e-01,
8.569642156e-02,
7.746361941e-02,
-2.481787466e-02,
-2.394700050e-02,
-3.733973578e-02,
1.187350377e-01,
-1.199548170e-01,
7.338286191e-02,
1.452679485e-01,
1.429399848e-01,
-1.074129567e-01,
7.492073812e-03,
-3.076245775e-03,
7.945316285e-02,
3.841518611e-02,
-3.285608441e-02,
1.013081744e-01,
-8.115523309e-02,
-1.081616953e-01,
-1.163832694e-01,
1.374135613e-01,
-9.027244896e-02,
-5.997825786e-02,
1.740456559e-02,
-4.635125026e-02,
9.642206877e-02,
-1.292769015e-01,
1.411195099e-01,
-2.705230750e-02,
-1.103848964e-01,
1.147517264e-01,
1.238606032e-02,
8.733846480e-04,
-1.762340963e-02,
-1.109961048e-01,
-9.854386002e-02,
-5.644415319e-02,
3.003307246e-02,
-1.271104999e-02,
1.025960315e-02,
9.815785289e-02,
-2.791941166e-02,
-6.198011339e-03,
7.239433378e-02,
9.505550563e-02,
-5.925123394e-02,
1.028592959e-01,
9.086594731e-02,
1.288994849e-01,
1.202318892e-01,
6.969596446e-02,
7.441624999e-02,
8.996289968e-02,
-8.076816052e-02,
1.403473616e-01,
-1.528764982e-02,
6.113077328e-02,
-1.587505080e-02,
-4.430440068e-02,
-8.099002764e-03,
-1.466837674e-01,
-1.069850996e-01,
7.362980396e-02,
-1.319095790e-01,
-5.517680198e-02,
5.628788844e-02,
-7.792009413e-02,
-4.660978168e-02,
3.404739127e-02,
1.011569053e-01,
5.413482338e-02,
-1.689609326e-02,
-4.240441695e-02,
3.612041846e-02,
1.372351050e-01,
1.055963635e-01,
2.067915052e-01,
-1.093946993e-01,
-3.950735088e-03,
-1.003303379e-01,
-3.124439716e-02,
-1.930649392e-02,
1.341666579e-01,
8.887928724e-02,
1.072797999e-01,
6.258130819e-02,
1.129330397e-01,
-4.013206437e-02,
1.352235023e-02,
2.036023140e-02,
-5.262862891e-02,
2.790205739e-02,
9.314888716e-02,
5.197612196e-02,
8.160073310e-02,
1.183079779e-01,
3.921034560e-02,
8.829133958e-02,
7.462128997e-02,
8.154272288e-02,
6.588163227e-02,
-6.210866570e-02,
1.184661165e-01,
-3.015088290e-02,
1.104830876e-01,
1.213637292e-01,
7.141162176e-03,
8.705271780e-02,
5.101333186e-02,
-6.151120737e-02,
1.400851756e-01,
8.916354179e-02,
9.587388486e-02,
-7.526448369e-02,
-6.135059521e-02,
-1.211285517e-01,
9.377601743e-02,
1.275441051e-01,
-2.443306334e-02,
-6.424929202e-02,
8.232033253e-02,
-7.488509268e-02,
-1.372417957e-01,
-1.063585654e-01,
-5.044146255e-02,
-1.268965900e-01,
2.392656915e-02,
6.929345429e-02,
-1.316763647e-02,
-8.011172712e-02,
6.777959317e-02,
-7.620501518e-02,
6.206976250e-02,
-1.863273792e-02,
1.393782347e-02,
-1.338399053e-01,
9.726516902e-02,
1.284143031e-01,
-2.951228619e-02,
-1.396006644e-01,
8.253452182e-02,
-3.233692795e-02,
1.459377725e-02,
7.511281222e-02,
-8.787737042e-02,
1.030280739e-01,
-7.421010733e-02,
1.159090921e-01,
6.231354550e-02,
4.398686439e-02,
1.023326814e-01,
-6.078019366e-02,
-1.089933738e-01,
-8.300798386e-02,
6.483817101e-02,
3.504329547e-02,
8.612015098e-02,
5.388638377e-02,
1.365013272e-01,
-1.284471750e-01,
1.145880148e-01,
-5.852656439e-02,
5.380875617e-02,
1.371614337e-01,
9.896148741e-02,
3.521498665e-02,
9.471340477e-02,
4.509087652e-02,
8.102768660e-02,
-1.959634013e-02,
1.136941016e-01,
-2.749447245e-03,
7.788223773e-02,
-8.936393075e-03,
-7.712080330e-02,
-1.605089754e-03,
5.109288613e-04,
-8.459020406e-02,
9.254133329e-03,
3.004257567e-02,
9.404333541e-04,
-6.684058160e-02,
-1.514153481e-01,
-1.116192783e-03,
-4.078589752e-02,
-3.762372583e-02,
1.141134873e-01,
-4.305957630e-02,
-7.868994027e-02,
-1.199946254e-01,
-1.656253822e-02,
1.266979426e-01,
-7.319313288e-02,
8.181620389e-02,
2.096952684e-02,
7.546715438e-02,
-2.840518579e-02,
-6.220946833e-02,
5.304678157e-02,
-4.924339708e-03,
1.756496541e-02,
1.158415005e-01,
8.889072388e-02,
-5.725888908e-02,
-6.638439745e-02,
-3.778831288e-02,
-5.089115351e-02,
-9.420132637e-02,
1.035058647e-01,
-7.896008343e-02,
7.221392542e-02,
-1.906624809e-02,
-1.173222736e-01,
-4.555457830e-02,
-1.222211719e-01,
8.296451718e-02,
1.348298043e-01,
1.256983727e-01,
-1.111178994e-01,
8.929534256e-02,
-2.510928921e-02,
-1.309125572e-01,
5.740595236e-02,
8.312985301e-02,
-8.198413253e-02,
4.306220915e-03,
-1.137810722e-01,
-1.607505530e-01,
-1.366033554e-01,
3.712697700e-02,
1.168739647e-01,
-1.073928699e-01,
5.837706104e-02,
1.162887812e-01,
1.030126810e-01,
1.180183217e-01,
-8.490535617e-02,
-6.353380159e-03,
7.618778944e-02,
-5.238076299e-02,
-3.082463518e-02,
-1.249760836e-01,
-4.123543948e-02,
-8.170614392e-02,
4.562960565e-02,
-3.455554694e-02,
3.398814425e-02,
1.498634070e-01,
-1.046554297e-01,
1.289236844e-01,
3.400404379e-02,
-5.638988316e-02,
-7.266719639e-02,
-3.518532217e-02,
-4.665754735e-02,
6.235199794e-02,
7.652638108e-02,
-2.306115255e-02,
4.183977470e-02,
5.643063411e-02,
1.300869975e-03,
2.741390094e-02,
-6.911978871e-02,
1.492693573e-01,
-9.552139789e-02,
-6.086817011e-02,
-1.043845788e-01,
-5.036036298e-02,
-1.162259281e-02,
-3.250131384e-03,
-2.441985719e-02,
-2.152068727e-02,
1.001403183e-01,
1.006911546e-01,
-3.261443973e-02,
1.927238517e-02,
1.747809350e-02,
-6.391583476e-03,
-1.148448661e-01,
3.718623891e-02,
-1.458256319e-02,
1.134400070e-02,
-3.063192032e-02,
6.382063776e-02,
-5.830057338e-02,
7.254882902e-02,
-9.720522165e-02,
-7.147810608e-02,
-5.109330267e-02,
3.592425212e-02,
3.335970640e-02,
1.557514817e-02,
-9.901727736e-02,
1.185615882e-01,
-8.292093873e-03,
-1.232647672e-01,
-7.429069839e-03,
-1.132239103e-01,
3.589439765e-02,
6.290800869e-02,
1.137426123e-01,
1.579085924e-02,
-6.578802317e-02,
4.000760987e-02,
6.603002548e-02,
1.252359897e-01,
2.956087515e-02,
-5.229548365e-02,
1.144855563e-02,
-3.040884249e-02,
-8.163528144e-02,
-5.190448835e-02,
-1.370646507e-01,
9.757948667e-02,
5.885833874e-02,
6.134800240e-02,
4.226613045e-02,
1.354106143e-02,
6.124216691e-02,
6.324160844e-02,
-1.439124197e-01,
-1.258159578e-01,
3.240783513e-02,
-4.146276508e-03,
1.200924814e-01,
1.074155420e-02,
3.826887906e-02,
1.259701103e-01,
6.435630471e-02,
1.266429126e-01,
-8.496507257e-02,
-1.112886071e-01,
-3.099531308e-02,
8.848498762e-02,
-6.460966915e-02,
-9.577225149e-02,
1.022669822e-01,
-7.382431626e-02,
-3.177131340e-02,
-1.281800419e-01,
4.547522217e-02,
-6.256085355e-03,
1.702369377e-02,
1.023653820e-01,
-1.311952323e-01,
-2.908003749e-03,
-3.614744917e-02,
-7.108243555e-02,
-4.887157585e-03,
6.628603488e-02,
-3.332195804e-02,
-2.089816146e-02,
3.841539100e-02,
6.996446848e-02,
4.685631022e-02,
-5.753864720e-02,
-3.436136246e-02,
5.426660180e-02,
1.066952646e-01,
5.663925782e-02,
9.154123068e-02,
8.981893212e-02,
6.004125997e-02,
-3.233465180e-02,
1.107857004e-01,
3.611496091e-02,
8.565589041e-02,
-1.306626499e-01,
1.547451131e-02,
-4.911243170e-02,
-2.629956976e-02,
9.724640101e-02,
-1.055665612e-01,
-1.502569467e-01,
-1.213196144e-01,
5.896291137e-02,
-6.647709757e-02,
-5.333906412e-02,
-5.092940852e-02,
-1.700233109e-02,
1.274338085e-02,
-3.681006283e-02,
-2.312673256e-02,
9.625988896e-04,
-7.387708407e-03,
1.033575237e-01,
-9.484604746e-02,
1.042264178e-01,
-4.849483445e-02,
-1.278167218e-02,
-1.178132221e-01,
1.357342452e-01,
7.116806507e-02,
-9.654945880e-02,
-1.378626190e-02,
-3.661038727e-02,
5.603674054e-02,
-9.015105665e-02,
-5.604761466e-02,
1.222010255e-01,
-2.622430585e-02,
-1.392835379e-01,
-9.348114580e-02,
1.050948054e-01,
6.943094730e-02,
-3.406433389e-02,
6.423178129e-03,
-7.062932849e-02,
1.117710546e-01,
1.022989210e-02,
-9.632053971e-02,
2.189063281e-02,
-9.858004749e-02,
-8.847831190e-02,
6.572546810e-02,
1.079718620e-01,
-2.752076136e-03,
-2.950878441e-02,
-6.415896118e-02,
-8.476328105e-02,
1.256763190e-01,
-9.955705702e-02,
-1.176205650e-01,
6.656074524e-02,
-1.850264706e-02,
-7.814566046e-02,
-1.314931214e-01,
-8.734332025e-02,
1.000593454e-01,
6.473604590e-04,
1.786255464e-02,
-1.061765552e-01,
7.315364480e-02,
4.194977880e-02,
9.029732645e-02,
-6.290798634e-02,
-6.153983623e-02,
-8.505132049e-03,
1.104671881e-01,
-2.999867126e-02,
-1.289525628e-01,
-8.486258984e-02,
3.740218701e-03,
1.235384643e-01,
5.272157490e-02,
1.050130278e-01,
4.662009329e-02,
1.929934509e-02,
1.274068207e-01,
-4.985089600e-02,
1.971824840e-02,
-4.223441705e-03,
3.031148203e-02,
-4.457797855e-02,
-1.222110018e-01,
1.139022112e-01,
9.309853613e-02,
1.283953637e-01,
-7.508929819e-03,
5.885699764e-02,
-3.860339150e-02,
-1.347350627e-01,
1.209089719e-02,
-3.552115057e-03,
1.138678044e-01,
-2.432333305e-02,
-3.127092123e-02,
-8.823174238e-02,
-1.205616295e-01,
-1.048181057e-01,
1.356273741e-01,
8.392119408e-02,
8.618139476e-02,
5.186221004e-02,
3.271185607e-02,
3.728070110e-02,
-5.326629803e-02,
8.363497257e-02,
1.561628561e-02,
-1.302873343e-02,
-1.121197864e-01,
-1.061179861e-01,
-1.323280931e-01,
3.936013579e-02,
-7.325752825e-02,
5.054450035e-02,
-9.293118864e-02,
-1.010794714e-01,
1.241290867e-01,
1.378045380e-01,
-3.577789664e-02,
-2.267741039e-02,
-1.240654066e-01,
-4.162603989e-02,
-4.007731751e-02,
-8.939410746e-02,
1.015546322e-01,
-1.253912151e-01,
7.680220902e-02,
3.751750290e-02,
3.909008205e-02,
1.232872605e-01,
-4.446553811e-02,
1.358892918e-01,
1.144921780e-01,
-5.331321806e-02,
1.120748520e-01,
-1.027899981e-01,
1.773862541e-02,
3.959595785e-02,
5.550394207e-02,
2.505273372e-02,
1.199612617e-01,
-1.215470731e-01,
2.873635665e-02,
-5.138846114e-02,
-8.853531629e-02,
-3.590979427e-02,
-7.544515282e-02,
9.651848674e-02,
9.511270374e-02,
-4.662024602e-02,
-4.356889054e-02,
1.270518005e-01,
-1.209144294e-01,
3.685914678e-03,
8.546563238e-02,
-1.311703026e-02,
3.391588107e-03,
9.487240016e-02,
-6.058958545e-02,
-4.931410402e-02,
-4.886841867e-03,
1.229796633e-01,
-7.769419998e-02,
4.332088865e-03,
-7.043340593e-04,
1.390549392e-01,
-3.327699378e-02,
-1.134974286e-01,
1.190175116e-01,
-9.602983296e-02,
-1.130482182e-02,
-3.936900757e-03,
5.922550708e-02,
6.335238367e-02,
1.200041324e-01,
1.176476404e-01,
1.214573607e-01,
-4.587016255e-02,
7.297935337e-02,
9.519428760e-02,
1.004390493e-01,
1.061695740e-01,
1.284634471e-01,
-8.625790477e-02,
-5.341328308e-02,
5.021765828e-02,
5.852838978e-02,
2.699190192e-02,
-1.223434284e-01,
-1.028433219e-01,
-5.355305504e-03,
-6.833776087e-02,
-5.576407909e-02,
7.436166704e-02,
1.151434332e-01,
-8.447153866e-02,
-6.497442722e-02,
-7.466059923e-02,
2.506558411e-02,
7.760659605e-02,
-6.429237872e-02,
3.782038018e-02,
1.605564058e-01,
-5.721171200e-02,
5.612614751e-02,
6.050803885e-02,
-5.366913229e-02,
-8.254931867e-02,
-6.962105632e-02,
1.187685207e-01,
5.644518137e-02,
5.202371255e-02,
-1.646390371e-02,
-3.828931833e-03,
-1.041409522e-01,
-1.407129169e-01,
1.504761726e-01,
1.068832949e-01,
1.424915344e-01,
1.131884530e-01,
-9.705815464e-02,
-6.368799508e-02,
1.842391863e-02,
3.943591192e-02,
5.823394656e-02,
-2.758444101e-02,
6.483408809e-02,
2.285812423e-02,
-1.624854864e-03,
1.326140761e-01,
-1.578275114e-02,
-1.154536009e-01,
1.430307515e-02,
1.100158840e-01,
1.252649128e-01,
-1.282275766e-01,
-1.026150510e-01,
9.266330302e-02,
-9.060266614e-02,
1.025882885e-01,
-1.143369451e-02,
-1.153793037e-01,
-1.326266974e-01,
7.963510603e-02,
1.689148135e-02,
-3.699056432e-02,
4.872839525e-02,
1.889410242e-02,
6.934080273e-02,
-1.017968580e-01,
4.553895444e-02,
-1.168542057e-01,
-1.071486622e-01,
1.063615829e-01,
-6.236171722e-02,
-5.302755628e-03,
7.502615452e-02,
-8.998652548e-02,
6.534776837e-02,
9.424374253e-02,
-1.093247980e-01,
1.130819991e-01,
-1.663555950e-02,
-2.919254638e-02,
-1.157735437e-01,
9.250082076e-02,
9.777907282e-02,
-7.822504640e-02,
7.029480487e-02,
5.788305402e-02,
9.631492198e-02,
7.019551098e-02,
-1.329469532e-01,
-2.004197612e-02,
-1.049921960e-01,
1.300759614e-01,
1.362225860e-01,
-8.278609067e-02,
-7.212965190e-02,
1.595566422e-02,
-9.370723367e-02,
-5.673705041e-02,
-5.053207651e-02,
1.678312570e-02,
1.169388443e-01,
2.981053293e-02,
2.761896700e-02,
-1.164499074e-01,
-2.927220426e-02,
-4.905791953e-02,
-9.077178687e-02,
-1.071759611e-01,
-8.589399606e-02,
-7.001136243e-02,
-1.069554240e-01,
-8.843620121e-02,
-3.872209787e-02,
1.389342267e-02,
-3.324237838e-02,
1.197160333e-01,
-8.153507113e-02,
-9.254710376e-02,
-1.737233065e-02,
6.863281876e-02,
-1.170297340e-01,
2.626341395e-02,
-3.975704685e-02,
1.410744488e-01,
-1.483947933e-01,
4.015110061e-02,
1.141728535e-01,
1.364302039e-01,
3.789490834e-02,
8.786189556e-02,
-1.184359491e-01,
9.479037672e-02,
8.165321313e-03,
5.265248194e-02,
1.435310487e-02,
-1.961582899e-02,
-5.388800520e-03,
-5.912696198e-02,
-4.956669360e-02,
6.263573468e-02,
-1.440929323e-01,
-8.755997568e-02,
-7.060861588e-02,
3.727994859e-02,
3.752127662e-02,
-1.275338978e-01,
1.277839243e-01,
-1.394068450e-01,
7.356769592e-02,
-8.989756554e-02,
-4.484903067e-02,
4.322898015e-02,
-1.105790734e-01,
1.281562895e-01,
1.216112897e-01,
1.018605754e-01,
-6.064158306e-02,
1.091025397e-01,
-1.279253960e-01,
4.702929780e-02,
-9.768501669e-02,
1.078021601e-01,
-1.261115074e-02,
-1.107338145e-01,
-1.914394274e-02,
4.263141006e-02,
-1.323457807e-01,
1.083969846e-01,
5.848049372e-02,
-7.723781280e-03,
-5.484814942e-02,
4.443734512e-02,
-1.197632402e-01,
5.355475843e-02,
-5.171708018e-02,
-1.210589781e-01,
-5.807523057e-02,
1.573152468e-02,
-3.352393955e-02,
-1.322762966e-01,
-3.229193389e-02,
-1.692264806e-03,
-9.767311066e-02,
1.034634560e-01,
-3.956238553e-02,
-5.707980320e-02,
-3.396826610e-02,
-1.304841973e-02,
-8.960118145e-02,
5.247456953e-02,
1.161299273e-01,
-8.228436857e-02,
-1.416610274e-02,
4.165910929e-02,
7.298097014e-02,
2.315257303e-02,
-4.797801003e-02,
1.099474505e-01,
7.192995399e-02,
3.676074371e-02,
-8.108203113e-02,
1.055639014e-01,
-4.529136047e-02,
-4.961935431e-02,
5.984573439e-02,
1.722905636e-01,
-6.900767982e-02,
-1.071859747e-01,
4.942637309e-02,
8.515886962e-02,
-1.105345711e-01,
1.431202441e-01,
1.294455379e-01,
1.052864343e-01,
4.373252019e-02,
-8.315642923e-02,
-7.807224244e-02,
2.829648182e-02,
1.479439586e-01,
-1.601378247e-02,
-1.077737734e-01,
-4.214449227e-02,
1.538410783e-02,
-1.417770088e-01,
-1.333177686e-01,
1.037277952e-01,
1.265611947e-01,
1.446679980e-01,
-1.473552585e-01,
-4.995215684e-02,
-3.982378542e-02,
-9.829779714e-02,
-9.522808343e-02,
5.819839612e-02,
4.203343764e-03,
-8.382678777e-02,
-8.628328145e-02,
-6.294847280e-02,
7.801294327e-02,
2.076299861e-02,
4.003766552e-02,
-1.317781657e-01,
1.215324253e-01,
1.129636019e-01,
-1.218711585e-01,
1.318332106e-01,
-4.157499224e-02,
3.866045922e-02,
4.916035756e-02,
1.061339229e-01,
1.227669492e-01,
-6.415174156e-02,
1.192695946e-01,
1.544505954e-01,
-1.153984666e-02,
-1.185308322e-01,
3.434516490e-02,
1.152611524e-02,
-1.325898431e-02,
1.447558105e-01,
6.506309658e-02,
7.550072670e-02,
6.078758091e-02,
1.360213608e-01,
-1.303443462e-01,
-9.466589242e-02,
6.003791839e-02,
1.123718172e-01,
8.687217534e-02,
-6.342833489e-02,
5.958683789e-03,
-2.949197963e-02,
-1.125680730e-01,
-6.938759983e-02,
1.234610006e-01,
4.203876480e-02,
9.937468916e-02,
-6.875249743e-02,
-8.472833782e-03,
-1.318449248e-02,
1.065035313e-01,
3.766020387e-02,
1.319504380e-01,
-4.185612127e-02,
3.827415034e-02,
-3.147597611e-02,
-7.491961867e-02,
-2.197684161e-02,
5.785164610e-02,
-9.280090779e-02,
-1.005552113e-01,
1.070338562e-01,
6.322707236e-02,
6.853936613e-02,
-6.250766665e-02,
6.220094115e-02,
-8.871380985e-02,
-6.799910963e-02,
-1.402850747e-01,
4.347819462e-02,
1.094920337e-01,
1.116687879e-01,
8.095107228e-02,
-6.273736805e-02,
-1.138943210e-01,
-8.272674680e-02,
-8.996331692e-02,
-6.450800598e-02,
6.166183949e-02,
9.673189372e-02,
1.315886378e-01,
-3.375321254e-02,
1.141236722e-01,
-1.356634349e-01,
-1.392635107e-01,
-4.078910127e-02,
-7.762626559e-02,
-1.678419672e-02,
-1.367258281e-01,
8.278137445e-02,
6.593134254e-02,
-1.139976364e-02,
5.203296989e-02,
2.220440842e-02,
4.847859498e-03,
-1.156115830e-01,
-1.117192209e-01,
-2.660322003e-02,
-5.066825822e-02,
-8.229342103e-02,
9.670331143e-03,
-1.207082570e-01,
1.316025555e-01,
-5.550556257e-02,
-1.081733853e-01,
-7.306280732e-02,
6.468795985e-02,
-3.379548341e-02,
1.054904237e-01,
-7.753832638e-02,
-8.143159002e-02,
-3.026143648e-02,
-1.141558439e-01,
-5.402376130e-02,
-8.458841592e-02,
5.001268908e-02,
-5.537953228e-02,
1.278490424e-01,
-5.373465642e-02,
9.350716323e-02,
-3.458080813e-02,
-5.706461146e-02,
-1.091854274e-01,
4.216967151e-02,
1.278401613e-01,
-9.023250639e-02,
4.962264746e-02,
1.535564810e-01,
2.665031701e-03,
-1.075322479e-01,
-6.723783165e-02,
7.796595991e-02,
-7.918782532e-02,
-9.422691166e-02,
1.445479095e-01,
2.398274653e-02,
4.391309619e-02,
-6.286694854e-02,
6.854707748e-02,
-1.383155137e-01,
-3.150052950e-02,
-2.919078618e-02,
9.473668784e-02,
8.559948951e-02,
5.654098466e-02,
7.417932898e-02,
-3.298398852e-02,
7.943791570e-04,
7.386388630e-02,
3.373425081e-02,
1.075079665e-01,
1.065407228e-02,
-1.131793410e-01,
4.580880329e-02,
1.522507370e-01,
4.236101359e-02,
-1.251727641e-01,
2.046044730e-02,
-1.179814935e-01,
1.235606596e-01,
1.006267965e-01,
1.256530583e-01,
9.475284070e-02,
1.196040735e-01,
6.861888617e-02,
-1.259971410e-01,
-8.624150604e-02,
1.440906674e-01,
-7.475060970e-02,
9.738929570e-02,
-6.207700819e-02,
7.874964923e-02,
1.471931338e-01,
-7.870811224e-02,
5.980302393e-02,
-6.352839619e-02,
-6.592546403e-02,
1.142369732e-01,
-1.024920493e-01,
2.802385204e-02,
5.846098065e-02,
6.018434092e-02,
4.013013467e-02,
-8.103886247e-02,
8.734624088e-02,
6.318596005e-02,
-7.579571009e-02,
5.628955364e-02,
2.360659279e-02,
4.696238413e-02,
9.829039127e-02,
9.174826741e-02,
-1.406078935e-01,
8.097648621e-02,
-1.212536544e-01,
1.123503149e-01,
1.106599048e-01,
-8.823169395e-03,
8.695894480e-02,
-1.347801983e-01,
-1.354131401e-01,
-1.405518204e-01,
7.714015245e-02,
1.100603715e-01,
-1.377173662e-01,
-1.562900841e-02,
-1.229164004e-01,
-7.939958945e-03,
-3.518354520e-02,
-4.467001557e-02,
-8.921588771e-03,
1.229618583e-02,
1.102472097e-01,
-6.759361923e-02,
-6.645574421e-02,
-1.097247154e-01,
3.157262877e-02,
5.125720985e-03,
7.439274341e-02,
-1.326591074e-01,
7.490161806e-02,
3.962922096e-02,
4.191140458e-02,
4.110115021e-02,
-7.405154407e-02,
9.425120801e-02,
-4.526494443e-02,
-1.409728378e-01,
-1.196629405e-01,
-3.495359048e-02,
1.408004016e-01,
8.697634563e-03,
3.961170465e-02,
8.087447286e-02,
-1.242109090e-01,
-1.449009329e-01,
-1.306219846e-01,
1.359295100e-01,
-6.839871872e-03,
-8.962479769e-04,
9.388820827e-02,
-3.671628609e-02,
3.776620142e-03,
-6.694246083e-02,
5.741878599e-02,
-1.454243511e-01,
9.364770353e-02,
1.459120512e-01,
1.157641187e-01,
1.415631324e-01,
-6.749480218e-02,
-1.325843334e-01,
1.248792000e-02,
-8.840055764e-02,
-7.879080623e-02,
1.299118251e-01,
1.249081343e-01,
-9.256906062e-02,
1.269528866e-01,
2.975565009e-02,
9.204800241e-03,
2.628635243e-02,
-6.762277335e-02,
1.193677858e-01,
-1.072325930e-02,
3.618284361e-03,
8.541804552e-02,
3.552443534e-02,
9.113304317e-02,
2.163302898e-02,
-1.418029815e-01,
-1.496192515e-01,
1.339863390e-01,
9.671223909e-02,
-3.984307870e-02,
1.367504150e-01,
1.252177358e-01,
-6.288124621e-02,
1.136498004e-01,
5.584340915e-02,
-6.809389591e-02,
-1.157469898e-01,
1.230481714e-01,
9.251082689e-02,
1.509863418e-02,
-9.647554159e-02,
5.905829370e-02,
-2.858886495e-03,
6.695197523e-02,
2.754170075e-02,
-3.847197071e-02,
1.263447255e-01,
-1.927094534e-02,
1.395664960e-01,
-1.142325252e-01,
-1.061411351e-01,
-7.940230519e-02,
-2.846151590e-02,
8.481004089e-02,
8.048288524e-02,
1.072949823e-02,
7.207492739e-02,
-1.137902737e-01,
-7.077755779e-02,
-6.074756384e-02,
6.669203192e-02,
-7.792847604e-02,
5.733054131e-02,
-9.153866023e-02,
5.257030576e-02,
-7.027078420e-02,
-6.688005477e-02,
-6.560325623e-02,
-8.000428975e-02,
1.342298537e-01,
-1.060927883e-01,
3.945977241e-02,
-4.616414383e-02,
1.353666782e-01,
6.262799352e-02,
6.452262402e-02,
1.187110022e-01,
-4.188293219e-02,
1.410167813e-01,
8.215325885e-03,
-5.568067357e-02,
2.838593721e-02,
-8.036758006e-02,
-2.331111021e-02,
-8.863832802e-02,
3.354662284e-02,
-1.306283381e-02,
-1.370275170e-01,
-6.919007748e-02,
-7.810831815e-02,
-4.024074227e-02,
-1.235147119e-01,
7.686733454e-02,
6.782332063e-02,
5.704381317e-02,
5.986012891e-02,
-8.066496998e-02,
-9.754844010e-03,
1.378805935e-01,
8.799006045e-02,
-2.111724764e-02,
6.210390851e-02,
5.327994376e-02,
-5.892985966e-03,
3.319333121e-02,
4.332659394e-02,
-5.658906698e-02,
7.896872610e-02,
-7.125993073e-02,
-1.442664713e-01,
1.579934061e-01,
6.786229461e-02,
1.393542588e-01,
-5.666631460e-02,
1.306921989e-01,
-8.461355418e-02,
5.526102148e-03,
1.769475290e-03,
1.265750974e-01,
1.145223901e-01,
-6.234861910e-02,
-1.141389608e-01,
1.258479357e-01,
1.067178771e-01,
4.905788973e-02,
7.197168469e-02,
4.826936871e-02,
1.386730373e-01,
-3.525589406e-02,
4.533619434e-02,
3.602853417e-02,
-5.393512920e-02,
7.751344889e-02,
7.648716122e-02,
-1.064054891e-01,
-1.048556566e-01,
-3.942118213e-02,
-6.502861530e-02,
-8.801940829e-02,
4.024258256e-02,
-5.977630988e-02,
-1.345622391e-01,
-5.479117110e-02,
-3.178273514e-02,
-6.195450947e-02,
-2.953828312e-02,
5.355699360e-02,
-8.136214316e-02,
3.469857201e-02,
-1.335957944e-01,
2.405583672e-02,
7.514272630e-02,
-1.155821308e-01,
-2.353138477e-02,
5.730977654e-02,
7.962491363e-02,
-4.618726671e-02,
3.418969363e-02,
8.709082752e-02,
9.717572480e-02,
-8.042041212e-02,
5.312620476e-02,
8.383323997e-02,
-2.929235250e-02,
-1.207532436e-01,
-7.677049935e-02,
8.598505706e-02,
1.316322088e-01,
-6.993701309e-02,
1.463389546e-01,
-1.724252664e-02,
8.480312675e-02,
8.876878768e-03,
1.252874583e-01,
-5.900564417e-02,
-1.553481631e-02,
3.760240600e-02,
-1.242925301e-01,
-1.364435405e-01,
2.787899459e-03,
5.149288569e-03,
-7.022074610e-02,
8.738359809e-02,
-6.368040293e-02,
6.449095905e-02,
2.720324555e-03,
1.056532115e-01,
-5.528132245e-02,
4.141623154e-02,
-1.209878251e-01,
1.256484389e-01,
-1.044179797e-01,
-1.631966420e-02,
-1.441647857e-01,
4.852311313e-02,
9.387830272e-03,
5.479644239e-02,
9.064301848e-02,
-1.224238127e-01,
-1.171358898e-01,
-1.454900950e-01,
3.773097321e-02,
1.465795469e-02,
7.424382865e-02,
4.417847842e-02,
1.134562045e-01,
1.067596897e-01,
1.819458604e-01,
1.053959057e-01,
-5.226900056e-02,
1.295237392e-01,
-4.166712239e-02,
1.786225103e-02,
-1.059431508e-01,
-4.150384292e-02,
1.189815104e-01,
-9.866595268e-02,
1.163890511e-01,
-1.293775886e-01,
-1.296585053e-01,
-1.440471113e-01,
1.419601142e-01,
4.515152052e-02,
4.966101795e-02,
5.311281607e-02,
5.662463233e-02,
-6.181691587e-02,
1.303148121e-01,
-8.800289035e-02,
-9.978054464e-02,
-1.070229709e-01,
1.433218867e-01,
7.482893020e-02,
1.772056683e-03,
-1.222423092e-02,
1.039827839e-01,
1.270483434e-01,
-1.129454002e-03,
6.862986833e-02,
-4.245724529e-02,
-4.670026898e-02,
7.904338650e-03,
-5.234244838e-02,
-1.429728121e-01,
1.779606007e-02,
-3.367510438e-02,
8.586484939e-02,
-1.233984530e-01,
-1.320494264e-01,
-1.377203315e-01,
1.223209798e-01,
-4.336583614e-02,
-2.144121937e-02,
-1.027400419e-01,
1.245761216e-01,
-8.473992348e-03,
6.841526926e-02,
2.559537301e-03,
7.397167385e-02,
1.080232933e-01,
7.075609267e-02,
5.582646281e-02,
-4.693786800e-02,
-6.490322202e-02,
-1.345177367e-02,
-6.448809803e-02,
1.181150004e-01,
1.310549080e-01,
6.121188402e-02,
9.606325068e-03,
1.407164335e-01,
1.272863597e-01,
-1.150891930e-01,
-5.221749097e-02,
5.491494015e-02,
-1.241650507e-01,
3.079566546e-02,
-5.855787918e-02,
-1.140423343e-01,
1.037603542e-01,
5.532697774e-03,
-4.527147859e-02,
-5.350281298e-02,
9.924820811e-02,
-7.235542685e-02,
1.324808449e-01,
-5.522649363e-02,
1.169895232e-01,
1.251260489e-01,
1.449387670e-01,
6.661278754e-02,
-9.726380557e-02,
2.059665136e-02,
-5.706939101e-02,
9.816987067e-02,
1.288672686e-01,
-2.183686197e-02,
1.177423075e-01,
-8.382459730e-02,
-1.231361032e-01,
1.090188771e-01,
1.143426895e-01,
-4.489024729e-02,
-5.560887232e-02,
-8.429293334e-02,
1.137501094e-02,
-9.839440696e-03,
-3.393050283e-02,
5.551540107e-02,
1.062422395e-01,
8.916195482e-02,
-1.454398502e-02,
-1.283525974e-01,
4.187311977e-03,
3.984632343e-02,
-3.468190134e-02,
-1.400752217e-01,
-1.029606685e-01,
-1.238203421e-01,
-1.123045012e-02,
7.977529429e-03,
-4.438922182e-02,
8.902203292e-02,
-4.031696543e-02,
9.162858129e-03,
9.883049875e-02,
-2.980048023e-02,
1.356892437e-01,
2.080321498e-02,
-4.846013710e-02,
-3.977494314e-02,
4.748084024e-02,
-1.621469669e-02,
-1.084961519e-01,
-9.873794764e-02,
-1.028140634e-01,
7.272718102e-02,
1.913805492e-02,
-1.118001193e-01,
-4.724644125e-02,
7.284563780e-02,
-7.487627119e-02,
9.465721250e-02,
6.477371603e-02,
-1.388874501e-01,
5.329379067e-02,
-8.608691394e-03,
-1.253679302e-02,
7.125945389e-02,
5.610901862e-02,
1.068089679e-01,
1.387905926e-01,
-1.046219189e-02,
7.736629993e-02,
-4.562038928e-02,
-1.384121925e-01,
-1.111121103e-01,
2.360063978e-02,
-1.080682576e-01,
-8.550545201e-03,
2.520304173e-02,
4.065945745e-02,
-7.886880636e-02,
4.810916632e-02,
-1.364736557e-01,
-6.996887922e-02,
-1.096937433e-01,
-9.460232407e-02,
7.733152062e-02,
-5.425426643e-03,
8.834066987e-02,
1.335350275e-01,
-1.063793376e-01,
2.492692135e-02,
1.201497465e-01,
3.593245149e-02,
9.295744449e-02,
1.135358885e-01,
-1.300052255e-01,
5.581628159e-02,
1.220110208e-01,
6.988711655e-02,
-9.122312069e-02,
-9.734388441e-02,
-1.327177137e-01,
3.603537381e-02,
-2.429323457e-02,
8.657888323e-02,
6.321516633e-02,
1.162605956e-01,
8.097091317e-02,
-4.782826081e-02,
-1.268435270e-01,
4.050005600e-02,
3.476414829e-03,
-1.550071687e-01,
9.723667055e-02,
-4.900107905e-02,
-5.494097620e-02,
1.810877700e-03,
-8.907283098e-02,
9.849116951e-02,
4.031854123e-02,
8.885732293e-02,
-5.066656694e-02,
-1.196584776e-01,
-1.060353592e-01,
6.361474283e-03,
1.137610376e-01,
3.039771691e-02,
-2.076621540e-02,
-6.251806021e-02,
6.966092438e-02,
-1.502538919e-01,
-5.506001785e-02,
-4.044354334e-02,
-6.974805146e-02,
7.379249483e-02,
-1.121557429e-01,
-3.805207089e-02,
-1.254088879e-01,
-2.506346628e-02,
4.126626253e-02,
-2.017194591e-02,
1.218643636e-01,
-3.651468828e-02,
-7.143910229e-02,
-2.047703974e-02,
2.704268508e-02,
-1.507434100e-01,
-8.248781785e-03,
1.963197999e-02,
1.029974893e-01,
-9.967528284e-02,
2.382164635e-02,
1.153661013e-01,
-7.817848772e-02,
6.357394904e-02,
-7.815831900e-02,
-1.448505074e-01,
1.008906588e-02,
5.714855343e-02,
6.435813755e-02,
1.020895094e-01,
-2.917923965e-02,
4.400298372e-02,
5.718568340e-02,
8.724495769e-02,
-3.731014207e-03,
-9.538762271e-02,
3.278366476e-02,
-4.647507891e-02,
3.348983824e-02,
1.235873550e-01,
2.676325478e-02,
-1.788430964e-03,
-4.854143411e-02,
-4.352601990e-02,
-8.088766597e-03,
4.018235207e-02,
2.330737747e-02,
-2.512981556e-02,
5.615212023e-02,
1.338692605e-01,
-1.124565676e-01,
1.438023448e-01,
-1.170778126e-01,
-7.390656322e-02,
-8.542896062e-02,
-3.496363759e-02,
9.741122834e-03,
-4.714526981e-02,
-1.669057272e-02,
1.334907413e-01,
-1.004049554e-01,
-6.879120320e-02,
-1.213032678e-01,
8.286184818e-02,
-2.171941334e-03,
-4.107653722e-02,
-5.394760892e-02,
-8.730545640e-02,
1.334374398e-01,
8.451920003e-02,
2.283669822e-02,
-4.371042550e-02,
5.601366237e-02,
1.043194905e-01,
-1.744526438e-02,
-3.783396631e-02,
-7.782202214e-02,
2.338930033e-02,
1.054960303e-02,
4.621071368e-02,
5.120331049e-02,
-6.409833580e-02,
-9.327717125e-02,
5.603860691e-02,
-1.269079447e-01,
1.095151231e-01,
1.114521027e-01,
1.117630824e-01,
-1.005828381e-02,
1.262664795e-02,
-1.156906337e-01,
1.609838568e-02,
9.685165435e-02,
-1.471351236e-01,
-1.263915841e-02,
2.814047411e-02,
1.366426498e-01,
-1.145674363e-01,
-1.079379842e-01,
1.335997581e-01,
-2.086914890e-02,
7.138149440e-02,
7.236403227e-02,
-1.109351590e-01,
1.321112365e-02,
-1.359093487e-01,
7.126355078e-03,
2.798550529e-03,
-1.265339553e-01,
1.253160387e-01,
7.266076282e-03,
-6.954223663e-02,
-1.119932979e-01,
5.554373935e-02,
-5.480912514e-04,
-4.544391483e-02,
-3.074097261e-02,
-9.035095572e-02,
1.200477481e-01,
7.955189049e-02,
-9.745524824e-02,
-1.224523857e-01,
9.084074944e-02,
2.514201030e-02,
-8.749208599e-02,
6.607075781e-02,
-1.091421545e-01,
6.697039306e-02,
6.937167794e-02,
1.055190712e-01,
1.314850450e-01,
-4.226129875e-02,
-2.928405069e-03,
8.686251193e-02,
-9.128370136e-02,
-8.468010277e-02,
7.081300020e-02,
-9.641487151e-02,
7.283825427e-02,
-2.598157153e-02,
-1.179064736e-01,
1.004294828e-01,
1.105690971e-01,
5.095794052e-02,
1.240594313e-01,
-4.243947566e-02,
-8.691696823e-02,
4.826712236e-02,
-1.186257526e-01,
-1.483508665e-02,
6.551176310e-02,
-1.003381237e-01,
7.477714866e-02,
1.379767954e-01,
-8.461358398e-02,
-3.121990943e-03,
-1.891958714e-02,
-2.580937743e-02,
7.439073175e-02,
1.078130454e-01,
-3.403122723e-02,
1.100964621e-01,
-4.653659835e-02,
-9.509326518e-02,
1.369757503e-01,
-1.162277460e-01,
-5.351823941e-02,
-9.599034674e-04,
1.371615231e-01,
-9.715618938e-02,
8.227722347e-02,
-1.190007031e-01,
1.422753334e-01,
-6.072393080e-05,
1.110460237e-01,
-1.194895357e-01,
-1.276598573e-01,
-1.022860408e-01,
-1.148324646e-02,
4.416034371e-02,
-1.696248725e-02,
-1.503576636e-01,
1.079832464e-01,
-1.810140721e-02,
8.899960667e-02,
-6.337787211e-02,
-5.425897613e-02,
9.553247690e-02,
7.065736502e-02,
2.374060825e-02,
-1.276456099e-02,
-1.216433793e-01,
-7.552906126e-02,
-3.675108403e-02,
-9.632890671e-02,
-2.664429136e-02,
-4.890355631e-04,
8.785742521e-02,
-5.806281045e-02,
1.013126224e-01,
8.705611527e-02,
-2.523347735e-02,
1.028386280e-01,
8.664483577e-02,
9.363169968e-02,
3.685409948e-02,
-5.333590508e-02,
7.506946474e-02,
1.035663560e-01,
-7.415254414e-02,
-2.432021499e-02,
8.401706070e-02,
5.104534328e-02,
3.995601833e-02,
9.966984391e-02,
1.146287322e-01,
4.691448063e-02,
9.033537470e-03,
-1.434535533e-01,
1.752433181e-02,
3.242122009e-02,
6.637060642e-02,
-9.862899780e-02,
1.100224853e-01,
7.592731714e-02,
-3.617215529e-02,
-1.004976034e-01,
4.193525761e-02,
5.169803649e-02,
7.058148831e-02,
1.060832292e-01,
-3.630629182e-02,
-1.018025950e-01,
1.101969704e-01,
-5.373102427e-02,
4.610720649e-02,
7.873106003e-02,
-2.309380658e-02,
-9.201567620e-02,
1.236389354e-01,
7.529013790e-03,
-8.239115030e-02,
-3.775056824e-02,
-1.233017370e-01,
-1.430291235e-01,
1.390755326e-01,
-4.162970930e-02,
9.910593182e-02,
1.150525361e-01,
-1.245919764e-01,
5.862983316e-02,
-1.017695218e-01,
6.462972611e-02,
7.162863761e-02,
1.103790477e-03,
-9.429791570e-02,
-4.021821369e-04,
1.430090368e-01,
-3.761581704e-02,
8.819912374e-02,
1.297664791e-01,
-4.460193589e-02,
2.895734273e-02,
-6.546288729e-02,
-1.162775159e-01,
-1.053597555e-01,
1.048205271e-01,
8.149618655e-02,
-9.576448798e-02,
7.709810138e-02,
-9.582486749e-02,
-9.366607666e-02,
-6.493384391e-02,
2.137529850e-02,
-9.489221871e-02,
-8.222117275e-02,
-1.290786266e-01,
-1.083338484e-01,
1.194006130e-01,
-2.354603447e-02,
4.443522077e-03,
-1.409127116e-01,
-3.153771535e-02,
-1.052064449e-01,
-8.075041324e-02,
1.781259663e-02,
5.788030475e-02,
-4.909695685e-02,
-8.586359210e-03,
7.826857269e-02,
1.169811040e-01,
1.243090909e-02,
5.790565535e-02,
1.181803569e-01,
-5.098607019e-02,
1.078696027e-01,
8.460553735e-02,
-3.532729670e-02,
-1.158663481e-01,
3.113151155e-02,
9.505498409e-02,
5.937022716e-02,
1.507099122e-01,
-1.258513052e-02,
4.434586689e-02,
-9.044324607e-02,
1.258269101e-01,
-1.295512766e-01,
2.979411185e-02,
6.420119107e-02,
-1.332629472e-01,
-1.241510734e-01,
1.276317835e-01,
-1.558176279e-01,
-4.044235125e-02,
4.023721442e-02,
-6.871473789e-02,
-5.907252058e-02,
2.515738830e-02,
7.752998173e-02,
-9.226816148e-02,
6.237593666e-02,
-8.545368165e-02,
-4.509973526e-02,
1.006563827e-01,
-1.289108545e-01,
1.283648461e-01,
-1.770229451e-02,
7.303611841e-03,
1.233479306e-01,
1.168980300e-01,
1.005091742e-01,
-1.036027214e-03,
6.975445151e-02,
-1.588576473e-02,
-1.633702894e-03,
5.566514656e-02,
3.102421388e-02,
1.884483546e-02,
-1.595894061e-02,
-1.521257404e-02,
8.212603629e-02,
-7.782302797e-02,
3.938371688e-02,
8.831653744e-02,
-1.124891266e-01,
-4.239025712e-02,
1.205912158e-01,
1.123919189e-01,
1.622194983e-02,
-1.491196360e-02,
4.779538140e-02,
8.581722528e-02,
8.929008991e-02,
-3.115215898e-02,
1.378185749e-01,
-5.471574143e-02,
1.729226112e-02,
-3.465556353e-02,
3.088081628e-02,
1.205876768e-01,
1.066839322e-01,
-1.104241088e-01,
4.502262175e-02,
9.923841804e-02,
-4.681646824e-02,
-1.534109749e-02,
-5.402090400e-02,
-5.917837843e-03,
-7.091521472e-02,
4.049958661e-02,
-6.069356576e-02,
-1.125500351e-01,
1.281381994e-01,
1.250627488e-01,
4.400792345e-02,
1.519754976e-01,
9.949977696e-02,
6.889228523e-02,
-1.841416955e-02,
-1.408663243e-01,
1.066328362e-01,
1.262866408e-01,
-4.634137079e-02,
2.088363282e-02,
1.140052900e-01,
-2.613134868e-02,
1.151947305e-01,
-1.778750494e-02,
-6.691778451e-02,
-1.233838424e-01,
2.759108506e-02,
9.502425790e-02,
5.732097104e-02,
3.154576197e-02,
-1.220182478e-01,
5.246801302e-02,
-1.248961613e-01,
-9.114711732e-02,
4.689684510e-02,
-3.654399514e-02,
8.432040364e-02,
-1.250539254e-02,
-5.194113404e-02,
4.481347278e-02,
-1.340649724e-01,
3.005053662e-02,
-1.252096742e-01,
1.482102573e-01,
4.917263612e-02,
-1.314783245e-01,
2.369313501e-02,
4.498227686e-02,
-9.039936215e-02,
-3.052052110e-02,
9.071786702e-02,
-1.324409097e-01,
-1.084218919e-01,
6.101961806e-02,
8.480608463e-02,
-1.222665012e-01,
1.385694742e-01,
-1.149497181e-01,
-4.230211675e-02,
1.336768568e-01,
-2.151317336e-02,
-9.228330851e-02,
1.017467398e-02,
1.236575916e-01,
8.697422594e-02,
-2.656865679e-02,
-7.747788727e-02,
3.446124122e-02,
4.614441656e-03,
-6.995533407e-02,
-5.087436736e-02,
1.070325002e-01,
2.303073369e-02,
9.595293552e-03,
-1.161829606e-01,
-1.267257929e-01,
8.944609016e-02,
-7.714466751e-02,
6.456162035e-02,
2.954122983e-02,
8.086401969e-02,
1.124217659e-01,
1.170401424e-01,
-2.842691541e-02,
-1.460644901e-01,
4.781792313e-02,
-9.749460220e-02,
1.325583607e-01,
-8.046200871e-02,
-3.332921118e-02,
-5.144932121e-02,
9.176938981e-02,
2.046137303e-01,
1.174836829e-01,
-7.718049735e-02,
3.932689130e-02,
1.348939687e-01,
7.694058120e-02,
-2.312210761e-02,
3.210068867e-02,
6.800428033e-02,
4.239730164e-02,
1.166140437e-01,
1.215901077e-01,
-5.000700802e-02,
-8.257418871e-02,
-9.100461006e-02,
-4.756456614e-02,
-4.692312330e-02,
-1.058642492e-01,
-5.410865322e-02,
4.278075695e-02,
8.526141942e-02,
1.859505624e-01,
-8.584163338e-02,
-5.779650062e-02,
-7.567758858e-02,
-6.321293116e-02,
1.027714908e-01,
2.458693832e-02,
9.110414982e-02,
-1.080620959e-01,
1.131487414e-01,
-7.749599963e-02,
7.797330618e-02,
-1.145545021e-01,
5.286370218e-02,
8.359179646e-02,
-2.739666589e-02,
1.180507764e-01,
8.838900924e-02,
-4.496448487e-02,
-1.175825894e-01,
-2.787880227e-02,
-2.790610865e-02,
-2.183885500e-02,
1.180651970e-02,
-4.957763478e-02,
-1.063519493e-01,
-1.779752597e-02,
-6.368266791e-02,
9.880036116e-02,
6.988349557e-02,
4.205663875e-02,
7.165276259e-02,
-1.270520240e-01,
-1.452266127e-01,
1.224625036e-01,
-3.782983171e-03,
6.968551129e-02,
-7.319669425e-02,
1.299818009e-01,
6.121544633e-03,
-2.041108534e-02,
-1.131304353e-01,
-5.753684044e-02,
2.555163950e-02,
-8.847079426e-02,
-1.406618655e-01,
-7.821474969e-02,
-1.441438943e-01,
-7.168395817e-02,
-3.088915907e-02,
7.353788614e-02,
-2.240454545e-03,
3.915730119e-02,
1.423793137e-01,
1.170591116e-01,
-1.586458832e-02,
2.562201768e-02,
-1.350215971e-01,
8.315073699e-02,
1.135531217e-01,
-1.363482028e-01,
1.605569571e-01,
2.278891951e-02,
-1.332556307e-01,
3.834682284e-03,
1.772605255e-02,
-8.779800683e-02,
-1.202470884e-01,
-1.348757744e-01,
2.701073512e-02,
-1.179680750e-01,
-8.268747479e-02,
-3.568189964e-02,
1.436700821e-01,
1.076392084e-01,
2.164195292e-02,
2.644370310e-02,
1.447241008e-01,
9.207367897e-02,
1.786082797e-02,
3.784821182e-02,
7.054000348e-02,
-1.317729503e-01,
1.220273133e-02,
5.305471271e-02,
-2.417382970e-02,
-8.236895315e-03,
1.156283263e-02,
-5.710903183e-02,
5.465338752e-02,
1.431217939e-01,
-5.107767880e-02,
-9.470480680e-02,
-7.607751340e-02,
-9.096776694e-02,
-6.325107068e-02,
-2.701942576e-03,
1.088071764e-01,
-3.416981176e-02,
2.829507366e-02,
1.462252438e-01,
-7.021002471e-02,
-4.271928221e-02,
-2.818049863e-02,
8.963125944e-02,
-5.720539019e-02,
7.277180254e-02,
1.488503218e-01,
1.068959609e-01,
-1.007487997e-01,
-8.484553546e-03,
-6.593766063e-02,
-9.977358580e-02,
-8.253725618e-02,
1.554394234e-02,
5.294100940e-02,
-6.379867345e-02,
-9.173750132e-02,
1.014850587e-01,
9.057430923e-02,
5.235397071e-02,
8.279958367e-02,
1.075170562e-01,
9.506516904e-02,
-1.490069926e-01,
-9.117830545e-02,
-8.004586212e-03,
-1.251859963e-01,
1.295532286e-01,
2.968199085e-03,
1.093959957e-01,
1.205195189e-01,
-4.018832743e-02,
-3.966847435e-03,
2.630290017e-02,
-8.153954148e-02,
-8.296337910e-03,
1.011993214e-01,
3.377563134e-02,
-6.725919992e-02,
1.474649012e-01,
-1.270186007e-01,
1.196793616e-01,
-1.240875497e-01,
-1.080264747e-01,
-2.243964374e-02,
-2.478875965e-02,
-4.066269472e-02,
-4.148633219e-03,
3.727303073e-02,
-2.277230285e-02,
1.217009202e-01,
-6.685527507e-03,
6.570029259e-02,
1.482508779e-01,
7.239547372e-02,
2.102340944e-02,
-1.315543652e-01,
2.298974432e-02,
4.093773291e-02,
-7.641451061e-02,
1.105331182e-01,
4.405535758e-02,
-1.077019870e-01,
-7.209988683e-02,
8.275590837e-02,
8.498502523e-02,
-1.484699100e-01,
9.422183037e-02,
6.730456650e-02,
1.123631373e-02,
6.637553871e-02,
-7.133456320e-02,
7.714886218e-02,
1.118468270e-01,
-9.889887273e-02,
-6.505107135e-02,
-2.293518186e-02,
3.270234913e-02,
-8.033943176e-02,
4.859886318e-02,
-2.598349750e-02,
1.377115548e-01,
2.468943037e-02,
1.395020783e-01,
-5.961839110e-02,
-1.190263703e-01,
-2.954802476e-02,
-1.237687841e-01,
1.165295318e-01,
-5.043687671e-02,
1.881730556e-02,
-5.503560975e-02,
-5.059801787e-02,
-1.183541790e-01,
5.312054232e-02,
-3.024534381e-04,
2.500112914e-02,
-6.519643217e-02,
3.015232831e-02,
4.170619696e-02,
-1.200608760e-01,
1.069281995e-01,
-1.285027713e-01,
1.568634063e-02,
-1.287822574e-01,
1.066264734e-01,
-4.276661947e-02,
1.363363117e-01,
-1.005987972e-01,
6.879990548e-02,
-1.035516709e-01,
8.735613525e-02,
-9.423623979e-02,
2.367945574e-02,
6.763558090e-02,
4.330942407e-02,
-1.326557547e-01,
-1.658697054e-02,
1.518915407e-02,
6.444790214e-02,
5.937166139e-02,
3.166164830e-02,
-5.154114589e-02,
1.077981293e-01,
-1.239435077e-01,
-8.831705153e-02,
1.197273005e-02,
-5.439706519e-02,
-9.306240827e-02,
7.932891697e-02,
8.769641817e-02,
7.935655117e-02,
-2.412007935e-02,
-5.134928972e-02,
3.822726756e-02,
1.060021296e-01,
-1.649167389e-02,
5.521846935e-02,
7.988630980e-02,
1.197633073e-01,
7.049617916e-02,
5.487020314e-02,
-5.482640117e-03,
-5.287888274e-02,
2.123697661e-02,
-2.421893179e-02,
5.081176013e-02,
-1.379171200e-02,
-8.590860292e-03,
8.061924577e-02,
4.329896346e-02,
-7.282596827e-02,
6.963358819e-02,
-8.147750795e-02,
2.003384940e-02,
2.950678021e-02,
6.334491074e-02,
6.640885770e-02,
-4.658998922e-02,
-3.538493440e-02,
1.328502744e-01,
-7.111398876e-02,
1.155083776e-01,
-1.188241839e-01,
1.060478836e-01,
-5.691023171e-02,
9.051541798e-03,
-1.405428797e-01,
-5.951976031e-02,
-1.219770387e-01,
-8.826081641e-03,
6.678180397e-02,
-6.735137105e-02,
-4.709060863e-02,
2.061601728e-02,
-6.578296423e-02,
-3.070347756e-02,
-7.949970663e-02,
-3.404391231e-03,
4.304514080e-02,
1.215872765e-01,
4.804674536e-03,
2.678546682e-02,
1.280426681e-01,
-1.271119900e-02,
8.551484346e-02,
6.643170118e-02,
-1.216351837e-01,
-5.063570663e-02,
1.278243959e-01,
4.348955676e-02,
-1.169806719e-02,
-1.439759433e-01,
1.133139655e-01,
-1.149738953e-01,
7.332524657e-02,
9.560155869e-02,
-1.298105693e-03,
5.055819824e-02,
-4.017587379e-02,
-1.317609549e-01,
6.558018178e-02,
-1.264113933e-01,
-8.018435538e-02,
8.387394249e-02,
5.980246887e-02,
-1.393106133e-01,
1.279654056e-01,
-7.107994705e-02,
8.655497432e-02,
1.012503821e-02,
-7.259532064e-02,
1.347535700e-01,
5.894997157e-03,
-3.876725212e-02,
-3.068567067e-02,
9.540391713e-02,
-1.261961274e-02,
-6.620216370e-02,
1.153607387e-02,
-2.217687480e-02,
-1.115084067e-01,
-9.998147190e-02,
9.937898070e-02,
4.417854920e-02,
7.275643945e-02,
1.162659302e-01,
-2.923666127e-02,
-9.006783366e-02,
-5.299303215e-03,
-7.913593203e-02,
1.428865790e-01,
-1.648867875e-01,
-9.187889099e-02,
3.626108170e-02,
-1.233380754e-02,
8.058684319e-02,
-7.646793872e-02,
6.994102150e-02,
6.723648310e-02,
-1.150938566e-03,
-1.060716063e-01,
3.731112182e-02,
1.434044912e-02,
-4.390025977e-03,
-6.852720678e-02,
-1.435017586e-01,
7.798650116e-02,
2.457817458e-02,
6.387124211e-02,
-1.055127755e-01,
-7.972701639e-02,
-3.573589399e-02,
-9.769925475e-02,
-1.223888397e-01,
1.003575772e-01,
-1.071569622e-01,
-1.180373356e-01,
-1.410398632e-01,
6.299876422e-02,
1.292927712e-01,
5.643842742e-02,
-4.136515781e-02,
1.212112792e-02,
-1.071738899e-01,
1.430703551e-01,
1.998917758e-02,
-1.966108195e-02,
-6.895416975e-02,
1.037064344e-01,
-1.065362804e-02,
9.833422303e-02,
-4.031702876e-02,
-1.299397349e-01,
-3.806995973e-02,
-7.326580584e-02,
-7.642827928e-02,
2.647522278e-02,
6.343312562e-02,
1.452492625e-01,
-5.660896003e-02,
4.831739143e-02,
-9.366501123e-02,
3.530420363e-02,
1.244586706e-01,
6.289268285e-02,
1.198140159e-01,
-9.336768091e-02,
-1.280360818e-01,
9.048948064e-03,
1.086771786e-01,
-3.355754772e-03,
1.554100215e-01,
7.828252017e-02,
1.358425617e-01,
-9.936405718e-02,
-6.346393377e-02,
-1.140732765e-01,
7.505115867e-02,
-3.716187552e-02,
5.461257324e-02,
-5.469885841e-02,
-6.259761751e-02,
-1.315420121e-01,
-1.005955637e-01,
-6.660172343e-02,
1.406979095e-02,
3.891142458e-02,
1.324433535e-01,
9.454819560e-02,
1.000322998e-01,
3.749162704e-02,
-1.040710658e-01,
3.520635888e-02,
1.304485351e-01,
1.022405773e-01,
-7.192466408e-02,
2.489153063e-03,
7.548249513e-02,
-2.461443655e-02,
1.224495545e-01,
-2.408874594e-02,
-1.220476702e-01,
4.515710846e-02,
7.731376588e-02,
3.049301170e-02,
-1.102944762e-01,
5.838298425e-02,
7.372000813e-02,
4.239057004e-02,
-1.313560605e-01,
3.353360668e-02,
-1.071206033e-01,
-1.031213533e-02,
-9.521946311e-03,
5.169337988e-02,
-7.252852898e-03,
-5.355776474e-02,
8.286809921e-02,
1.339002401e-01,
1.323374510e-01,
3.629876301e-03,
-6.701829284e-02,
-2.571442910e-02,
-1.571969129e-02,
1.521539688e-01,
5.100497603e-02,
1.322214007e-01,
-4.052131251e-02,
-4.141861945e-02,
1.297566593e-01,
3.318574652e-02,
-2.362705208e-02,
-1.268838942e-01,
7.402194291e-02,
-7.923869789e-02,
-6.428766996e-02,
-7.333895564e-02,
-1.392031461e-01,
1.281775832e-01,
-5.653514341e-02,
-1.111801714e-01,
-1.216868907e-01,
-1.253669858e-01,
9.118974954e-02,
-2.208281308e-02,
4.560330510e-02,
-6.219246984e-02,
1.309504807e-01,
1.279280782e-01,
-1.837207563e-02,
-1.332541108e-01,
4.744478036e-03,
-4.010619596e-02,
-9.448279440e-02,
-9.456530213e-02,
3.353775013e-03,
8.696613461e-02,
-5.316269025e-02,
-7.731985766e-03,
8.462323993e-02,
1.180218831e-01,
-9.494910389e-02,
-1.525627013e-04,
8.122923970e-02,
-5.510354415e-02,
1.207026467e-02,
5.208683666e-03,
-2.241259068e-02,
1.199338064e-01,
-2.537119575e-02,
1.177453995e-01,
3.459862620e-02,
-1.805001497e-02,
-7.786671817e-02,
-1.280264854e-01,
-1.736993901e-02,
1.866295561e-02,
-1.840929128e-02,
-1.176573709e-01,
1.087645739e-01,
-1.340781599e-01,
1.037659347e-01,
1.959580183e-02,
-1.332595348e-01,
1.167883724e-02,
9.102162905e-03,
5.402999744e-02,
9.618718177e-02,
4.541927949e-03,
-9.932690859e-02,
-1.259393543e-01,
-5.544687435e-02,
-1.928683836e-03,
3.457516804e-02,
5.838112906e-02,
1.046016589e-01,
-1.320869476e-01,
-1.110490412e-01,
2.960194089e-02,
-6.411996484e-02,
8.133631200e-02,
1.034788508e-02,
1.207200661e-01,
-1.243920401e-01,
1.013988554e-01,
4.593918473e-02,
4.619774222e-02,
-6.485226005e-02,
-9.883647412e-02,
-6.459036469e-02,
1.341380030e-01,
-3.875652701e-02,
6.817860156e-02,
1.021794379e-01,
-5.755442753e-02,
7.735721022e-02,
1.144215986e-01,
1.177140623e-01,
-5.868804082e-02,
-4.641720653e-02,
4.719269637e-04,
-6.235951930e-02,
1.945050433e-02,
-1.205136850e-01,
1.310084313e-01,
4.197335802e-03,
-1.106965244e-01,
9.305214882e-02,
3.612039238e-02,
1.050854027e-01,
-6.768524647e-02,
-1.147549525e-01,
1.420106143e-01,
-6.779714674e-02,
2.284577116e-02,
9.107723832e-03,
-7.225337625e-02,
1.708005369e-02,
-1.153126583e-01,
8.004146814e-02,
-3.780138865e-02,
-1.679846086e-02,
-4.510366544e-02,
1.141770631e-01,
-1.370181739e-01,
-9.525042027e-02,
-1.291646808e-01,
5.983092636e-02,
3.685065731e-02,
-6.430083513e-02,
1.087283865e-01,
9.885917604e-02,
-4.587116465e-02,
6.179095432e-02,
4.943556711e-02,
6.796693802e-02,
8.734454960e-02,
3.600508720e-02,
7.143016905e-02,
2.577813156e-02,
-8.280032128e-02,
6.265262514e-02,
1.217364743e-01,
-5.703571439e-02,
1.127830669e-01,
1.143788546e-01,
1.046538949e-01,
-3.271773458e-02,
-1.449370086e-01,
-3.380805952e-03,
-1.058486626e-01,
-5.395118892e-02,
8.114892989e-02,
3.931263089e-02,
-5.564140528e-02,
1.205604300e-01,
-1.357534230e-01,
6.564699113e-02,
2.959358133e-02,
1.361596435e-01,
9.556719661e-02,
-7.947231829e-02,
5.385532975e-02,
1.377572119e-01,
1.263924837e-01,
-6.039838120e-02,
-2.423547953e-02,
-1.206660569e-01,
-4.807208851e-02,
1.182537526e-01,
6.662666053e-02,
-5.641815439e-02,
-1.448848993e-01,
9.624615312e-02,
4.110063240e-02,
-4.846398532e-02,
-5.189657584e-02,
-1.378498524e-01,
1.985149924e-03,
-1.320316344e-01,
8.906584978e-02,
-9.994409978e-02,
8.572041243e-02,
-9.210209548e-02,
1.011399329e-01,
-9.156116843e-02,
-7.847050205e-03,
-9.536424279e-02,
1.380542293e-03,
8.856543154e-02,
1.576357335e-02,
-1.282220986e-02,
-1.232545525e-01,
-4.770122841e-02,
2.840732038e-02,
1.183399335e-01,
2.389578521e-02,
4.735601693e-02,
9.039200842e-02,
-3.096915036e-02,
-1.262561083e-01,
1.210850850e-01,
-1.046671495e-01,
8.688764274e-02,
-6.193020195e-02,
8.953832835e-02,
-4.903704673e-02,
-2.422701009e-02,
-2.945689112e-02,
-5.991273373e-02,
-6.593780126e-04,
3.475758806e-02,
-6.869795918e-02,
-3.427652642e-02,
-1.372934133e-01,
1.458250172e-02,
1.258091629e-01,
-1.141351014e-01,
9.102663025e-03,
5.087612197e-02,
4.326624051e-02,
-6.553189456e-02,
1.399076134e-01,
-1.218581647e-01,
-5.756374449e-02,
1.351522058e-01,
1.370523274e-01,
1.278603077e-01,
-1.026907787e-01,
4.678408802e-02,
1.309427321e-01,
5.895699933e-02,
-1.154422984e-01,
1.413186193e-01,
4.540556669e-02,
2.809274383e-02,
-1.271125376e-01,
8.834543079e-02,
-8.673688024e-02,
-8.306971192e-02,
3.801388294e-02,
-3.287394345e-02,
-1.427222937e-01,
-6.814752851e-05,
6.875078380e-02,
-4.375316948e-02,
-1.078724265e-01,
-6.273315102e-02,
-4.548075423e-02,
7.291681319e-02,
-7.782048732e-02,
2.216847800e-02,
6.342559308e-02,
-4.114668351e-03,
1.993699186e-02,
-1.007886305e-01,
-4.880471155e-02,
-7.713311911e-02,
-5.408633500e-02,
-1.123159826e-01,
-5.347184092e-02,
1.164850518e-01,
1.297073215e-01,
-5.278323963e-02,
1.214825138e-01,
4.450939596e-02,
-4.020251706e-02,
9.124512970e-02,
7.615925372e-02,
-1.146539077e-01,
-7.425957173e-02,
3.636594489e-02,
1.083672941e-01,
-1.491543651e-01,
9.374650568e-02,
8.565621451e-03,
1.487953216e-01,
-1.018695384e-01,
6.774692982e-02,
-3.700402379e-02,
7.920183986e-02,
7.107229531e-02,
7.943404466e-02,
-5.695575476e-02,
3.858560696e-02,
-8.312539756e-02,
-1.624679193e-02,
1.381205618e-01,
-6.080743391e-03,
-5.893753096e-02,
-1.222742274e-01,
-8.488901705e-02,
-9.400080144e-02,
8.431582153e-02,
1.136068478e-01,
-5.702122301e-02,
-1.226601303e-01,
-1.076460257e-01,
-6.324115675e-03,
7.471382618e-02,
-3.917586803e-02,
-7.206287980e-02,
6.792002916e-02,
-7.239956409e-02,
7.238817867e-03,
6.866443157e-02,
7.876981050e-02,
-1.492030919e-01,
-1.652375981e-02,
-8.846447803e-03,
9.395779669e-02,
-8.272445202e-02,
-1.827578247e-02,
1.788979769e-02,
8.360686898e-02,
-1.718728617e-02,
-2.701014094e-02,
-3.773980960e-02,
-1.174229011e-02,
1.657707617e-02,
1.042035967e-01,
-1.982675865e-02,
1.488568261e-02,
9.516046196e-02,
1.224718913e-01,
1.216417775e-01,
-8.541044779e-03,
8.973324299e-02,
1.060143933e-01,
-8.347338997e-03,
5.735859647e-02,
-7.228866220e-02,
7.222554833e-02,
-8.659615368e-02,
-3.573938459e-02,
2.976497076e-02,
9.357412159e-02,
-1.297033578e-01,
-4.179326445e-02,
9.175071865e-02,
1.046388894e-01,
6.055036932e-02,
-3.518987820e-02,
-7.517928630e-02,
-8.100280911e-02,
-3.224768117e-02,
-1.245766506e-01,
-7.805337012e-02,
-9.169890732e-02,
-4.921483248e-02,
5.136521906e-02,
5.458284542e-02,
-5.018388107e-02,
-6.972623616e-02,
5.085719749e-02,
1.052310616e-01,
-1.158305332e-01,
-9.942352027e-02,
-1.075902134e-01,
-1.011060327e-01,
7.301977277e-02,
2.096740529e-02,
-9.244346619e-02,
3.861195222e-02,
-1.146983057e-01,
1.472606659e-01,
-7.196331769e-02,
1.922603399e-01,
2.148191445e-02,
-5.958868423e-04,
1.106873974e-01,
7.285210490e-02,
7.927075028e-02,
-4.467431456e-02,
2.176775970e-02,
-5.356626958e-02,
-2.195944637e-02,
-1.357638929e-02,
1.493669748e-01,
3.503672779e-02,
-2.050635405e-02,
-1.218480244e-01,
-6.110028177e-02,
1.412431896e-01,
1.001244858e-01,
6.296011060e-02,
6.736304611e-02,
1.417231858e-01,
-7.438626885e-02,
-6.543140858e-02,
8.503416926e-02,
2.679646760e-02,
2.825762890e-02,
4.753740877e-02,
-1.292752922e-01,
-2.004845999e-02,
1.390613765e-01,
-8.176152408e-02,
-1.400278881e-03,
1.124129817e-01,
9.418322891e-02,
-6.886135042e-02,
1.588038541e-02,
9.336219728e-02,
-6.133860350e-02,
-1.077597216e-01,
-4.292611778e-02,
6.329470128e-02,
-7.000525296e-02,
6.075186282e-02,
1.151306927e-01,
1.920434833e-02,
-1.064755842e-01,
1.295130998e-01,
-7.200911641e-03,
1.172350571e-01,
6.054834276e-02,
-1.407155097e-01,
5.010468140e-02,
-4.754154477e-03,
2.534908615e-02,
3.440519795e-02,
1.045075729e-01,
-4.001635686e-02,
2.131042443e-02,
8.372335136e-02,
6.315764040e-02,
1.314710379e-01,
1.289523989e-01,
2.266399749e-02,
-7.589252293e-02,
4.490042478e-02,
2.886678791e-03,
6.105171889e-02,
-3.922080994e-02,
-1.365952343e-01,
-1.131672785e-01,
-1.388379633e-01,
-9.501090646e-02,
8.007945865e-02,
-1.582984440e-02,
-5.468457565e-02,
-7.681438327e-02,
7.936580479e-02,
1.015258115e-02,
-7.630313188e-02,
-1.013976261e-01,
-7.132637501e-02,
-8.229946345e-02,
-7.867718488e-02,
-3.294810653e-02,
8.962401748e-02,
4.534121603e-02,
3.426903486e-02,
-2.456784621e-02,
-8.014607243e-03,
-1.398515999e-01,
1.650802605e-02,
-5.295462441e-03,
7.857791334e-02,
-1.127042621e-01,
-1.379015483e-02,
5.881732795e-03,
4.265954345e-02,
5.589812249e-02,
-1.087738350e-01,
-1.310238093e-01,
-1.094436795e-01,
1.369297504e-01,
-1.341469288e-01,
-9.352642298e-02,
-4.412774369e-02,
7.394049317e-02,
-1.126060188e-01,
2.320295433e-03,
-1.277661622e-01,
5.325702205e-02,
1.000476331e-01,
2.651726082e-02,
-1.135955751e-01,
-1.235448197e-01,
6.881210208e-02,
1.114182919e-01,
6.062453240e-02,
-1.324143708e-01,
-1.479282826e-01,
-1.009195000e-01,
5.246631056e-02,
1.119925007e-01,
-7.434794307e-02,
-9.503234923e-02,
-6.798227876e-02,
3.598824143e-02,
7.262542099e-02,
-7.234111428e-02,
2.480390109e-02,
1.240502149e-01,
1.005439088e-01,
-5.188518018e-02,
5.466568097e-02,
-6.222295389e-02,
7.771467417e-02,
1.066455618e-01,
-9.667480737e-02,
9.859782644e-03,
-1.016312689e-01,
3.862084448e-02,
1.152141392e-01,
3.588590026e-02,
4.975477234e-02,
1.104879454e-01,
1.284956932e-01,
1.085523888e-01,
7.723425329e-02,
-2.288266830e-02,
-4.064377025e-02,
-1.177394241e-01,
-2.804784104e-02,
3.515798971e-02,
7.204053551e-02,
-5.759905092e-03,
-1.513015758e-02,
-8.407516032e-02,
9.919894487e-02,
6.944049150e-02,
8.038131893e-02,
-2.615479380e-02,
-5.688484758e-02,
-6.741765141e-02,
-1.084303558e-01,
-1.075964794e-01,
-6.061855331e-02,
4.019924905e-03,
1.752641052e-01,
-1.273072660e-01,
7.518664747e-02,
2.651650272e-02,
7.764996588e-02,
1.210981235e-01,
-1.072664652e-02,
7.203854620e-02,
2.378881909e-02,
5.132296309e-02,
1.658084616e-02,
-6.496481597e-02,
4.186220933e-03,
-4.484423995e-02,
-3.623678908e-02,
-1.297655702e-01,
-1.123868600e-01,
2.698856033e-02,
8.779074997e-02,
1.375799328e-01,
7.976434380e-02,
1.440590620e-01,
-1.176632121e-01,
-5.101218820e-02,
-5.049419589e-03,
-1.186367199e-01,
-9.444262087e-02,
-8.330168203e-03,
-4.138658196e-02,
7.149052620e-02,
-1.271117628e-01,
3.897450864e-02,
-9.409064427e-03,
-6.266114116e-02,
-6.184127182e-03,
8.611728251e-02,
-3.012666292e-02,
8.567804098e-02,
-3.323481232e-02,
-1.232452244e-01,
-1.409476846e-01,
9.383279830e-02,
-2.306742035e-02,
1.405188255e-02,
-8.120086789e-02,
3.329667449e-02,
-3.451191634e-02,
8.936464787e-02,
5.736091640e-03,
-4.420899227e-02,
4.208502173e-02,
9.584506601e-02,
-8.341228962e-02,
-1.241020411e-01,
-6.321425736e-02,
-7.260183245e-02,
-1.225310490e-01,
1.951275766e-02,
-3.779963404e-02,
7.281401753e-02,
1.210083961e-01,
-2.292100526e-02,
-7.183532417e-02,
1.290103942e-01,
-2.076022699e-02,
1.026100442e-01,
-2.869050764e-02,
2.178586088e-02,
6.239793822e-02,
-4.321933910e-02,
9.179466218e-02,
-5.983082205e-02,
8.293369412e-02,
-5.828483030e-03,
-1.147725955e-01,
1.090694517e-01,
-1.054457873e-01,
-1.156595871e-01,
1.160037145e-01,
1.172944084e-01,
3.663221747e-02,
-8.509511501e-02,
1.227891296e-01,
-1.320226938e-01,
6.295809895e-02,
-7.968977094e-03,
-9.892826527e-02,
-5.247198418e-02,
-1.158037409e-01,
-1.144343615e-01,
4.744949192e-02,
9.744277596e-02,
-1.168444902e-01,
1.124730557e-01,
-2.154778130e-02,
6.721224636e-02,
-3.510141000e-02,
4.150719568e-02,
-1.632659696e-03,
1.021234617e-01,
-8.910433389e-04,
-5.953983217e-02,
-1.191747710e-01,
1.116444468e-01,
9.393373877e-02,
-6.207622215e-02,
-7.387251407e-02,
1.070129573e-01,
6.158977374e-02,
1.262880117e-01,
1.490409765e-02,
1.316729784e-01,
1.389753073e-01,
3.655010089e-02,
-9.331437945e-02,
-1.380551010e-01,
9.326289594e-02,
1.085921004e-02,
1.265572011e-01,
-7.424674183e-02,
-1.161808223e-01,
1.040353477e-01,
1.044215262e-01,
7.685999572e-02,
3.833434358e-02,
-1.061619148e-01,
-9.669541568e-02,
6.380820274e-02,
1.168737113e-01,
4.109792784e-02,
-1.278012395e-01,
-1.505942345e-01,
1.156034768e-01,
4.708307236e-02,
-1.073673144e-01,
1.304717064e-01,
1.013479102e-02,
-1.135872826e-01,
-1.240967289e-01,
1.121762693e-01,
1.968471706e-02,
1.278868467e-01,
-1.456075013e-01,
5.345757306e-02,
4.962288588e-02,
-5.016994849e-02,
-6.852544099e-02,
9.923561662e-02,
-7.146312296e-02,
-1.372958422e-01,
9.445589781e-02,
8.413445204e-02,
-1.124569997e-01,
-2.324831439e-03,
5.231035501e-02,
-2.171482192e-03,
9.949958324e-02,
3.005223535e-02,
-1.005973592e-01,
-4.624443129e-02,
-8.742979169e-02,
1.190069243e-01,
-3.184637427e-02,
-1.392920017e-01,
-1.240876913e-01,
-1.248089150e-01,
-1.444379613e-02,
-5.217016116e-02,
-3.527778387e-02,
-7.624384016e-02,
1.398877949e-01,
8.174152672e-02,
1.451284438e-01,
1.466473844e-02,
3.403867595e-03,
1.865209267e-02,
-1.044555455e-01,
-9.685738385e-02,
-1.355114281e-01,
2.108659036e-02,
1.426187754e-01,
8.532536775e-02,
2.843147330e-02,
-9.626569599e-02,
9.747487307e-02,
-1.054474339e-01,
-1.528283861e-02,
5.420069769e-02,
5.509570986e-02,
3.171232715e-02,
7.691874355e-02,
6.840084214e-03,
1.109080203e-02,
3.555230051e-02,
1.038267910e-01,
-1.953710057e-02,
1.401274353e-01,
-4.882852733e-02,
1.217826363e-02,
-5.001308024e-02,
5.507947877e-02,
-1.163712367e-01,
-1.508538127e-01,
6.429826468e-02,
1.365431547e-01,
-2.000299748e-03,
1.276706308e-01,
1.128058881e-01,
-3.710057214e-02,
-6.383564323e-02,
-1.429282278e-01,
-2.724181488e-02,
1.292357296e-01,
2.915024571e-02,
4.310421646e-02,
-9.425492585e-02,
1.215160564e-01,
6.378803402e-02,
-9.603522718e-02,
-7.168641686e-02,
5.303426459e-02,
-8.963561058e-02,
6.423643231e-02,
1.684584469e-02,
1.238909587e-01,
-3.409514949e-02,
1.097024679e-01,
-1.109115258e-01,
1.254956005e-03,
-2.901036665e-02,
-6.104489416e-02,
-7.558068633e-02,
-1.022235006e-01,
-1.456830800e-01,
-1.059797183e-01,
-7.878802717e-02,
-1.392902434e-01,
2.791784517e-02,
-1.297350526e-01,
4.211610556e-02,
5.033554509e-02,
1.393183018e-03,
9.487524629e-02,
-8.014854044e-02,
-7.610210776e-02,
8.815124631e-02,
-5.304452032e-02,
-8.569129556e-02,
6.507249922e-02,
-6.123256404e-03,
-6.812620163e-02,
-4.683680460e-02,
-1.062485203e-01,
1.052277386e-01,
1.361819506e-01,
4.940607026e-02,
-9.266535193e-02,
-5.569641665e-02,
6.673949957e-02,
8.738559484e-02,
1.810557209e-02,
-5.842111632e-02,
-5.454161670e-03,
-7.806713879e-02,
8.646429330e-02,
4.445021227e-02,
1.258936375e-01,
5.348639190e-02,
-3.333080932e-02,
-1.583172125e-03,
1.066943854e-01,
1.232132316e-01,
-9.808142483e-02,
-1.465114355e-01,
-5.495407805e-02,
-7.296651602e-02,
-1.491567306e-02,
-1.624403335e-02,
6.227890775e-02,
-8.352974802e-02,
9.919082373e-02,
-2.345121466e-02,
-6.074370444e-02,
-7.913095504e-02,
1.073956117e-01,
-1.031945944e-01,
-2.419628389e-02,
1.374495327e-01,
3.483545408e-02,
-9.674343467e-02,
1.405157745e-01,
-1.501208097e-01,
-4.430270288e-03,
4.539042339e-02,
-1.056961641e-01,
1.023722962e-01,
2.481886558e-02,
-9.398794174e-02,
-3.503534198e-02,
2.654550597e-02,
-4.075003415e-02,
4.520941526e-02,
-6.997691840e-02,
2.156738564e-02,
2.920041420e-02,
-2.695691958e-02,
-1.124003306e-01,
-1.406979002e-02,
5.784884095e-02,
-8.056323975e-03,
3.639569879e-02,
-6.488723308e-02,
-5.198070779e-02,
1.398486346e-01,
-6.681783497e-02,
1.049395353e-01,
-8.447928727e-02,
-1.514421776e-02,
5.154637154e-03,
1.445053369e-01,
5.889356881e-02,
-6.482863426e-02,
-9.841199964e-02,
-1.449840963e-01,
1.158360466e-01,
-2.085912600e-02,
8.189992607e-02,
-1.476057223e-03,
-8.682776988e-02,
-2.987455204e-02,
-4.350746423e-02,
-3.215727583e-02,
-1.106207911e-02,
1.199257001e-01,
-2.553433739e-02,
4.180255532e-02,
1.380646378e-01,
-1.093071625e-01,
-1.069048494e-01,
2.890329808e-02,
-1.147719547e-01,
-7.356203161e-03,
1.093766689e-01,
-6.024328619e-02,
9.365667403e-02,
-6.160217524e-02,
-6.991138682e-03,
-1.349341273e-01,
6.217380613e-02,
5.792957917e-02,
-2.497452497e-02,
-5.935175344e-02,
-6.114169955e-02,
-2.896021307e-02,
1.034199297e-01,
5.952036008e-03,
-6.202809885e-02,
3.787594661e-02,
1.152504832e-01,
7.177995145e-02,
3.143763170e-03,
3.387256339e-02,
-2.237515152e-02,
-1.022438258e-01,
-1.607896946e-02,
-9.478226304e-02,
1.053551435e-01,
-3.546010330e-02,
-1.326737553e-01,
9.239443392e-02,
7.528781891e-02,
2.609925577e-03,
9.452779591e-02,
-3.086285666e-02,
6.135882065e-02,
1.286054254e-01,
-9.588810802e-02,
2.760615200e-02,
9.777528048e-02,
1.477353573e-01,
1.104301587e-01,
-4.722640384e-03,
1.209157109e-01,
5.454047024e-02,
9.218031913e-02,
-1.211643144e-01,
-1.092711762e-01,
-8.440873772e-02,
1.396653522e-02,
-1.160982698e-01,
-7.443525642e-02,
-3.753881156e-02,
5.236408114e-02,
1.477106810e-01,
1.308383048e-01,
3.970291466e-02,
8.931894600e-02,
-8.780119009e-03,
-1.307391375e-01,
-1.447013766e-01,
-7.696351409e-02,
8.865554631e-02,
1.315947473e-01,
4.707841575e-02,
-6.088300142e-03,
-1.274297982e-01,
1.612500171e-03,
1.281116456e-01,
-4.647158459e-02,
-7.503122091e-02,
2.642759494e-02,
-1.370041817e-01,
-1.125522256e-01,
-1.228311062e-01,
1.807081886e-02,
-7.242076844e-02,
9.391097724e-02,
8.595753461e-02,
2.627747506e-02,
-3.844789416e-02,
-4.334983230e-02,
-8.320879936e-02,
-1.047294140e-01,
-8.811759949e-02,
2.121069469e-02,
3.953820467e-02,
7.361880690e-02,
9.043981880e-02,
-3.050112166e-02,
3.887619451e-02,
1.087163016e-01,
-9.927973896e-02,
2.966721728e-02,
1.037587691e-02,
2.609424293e-02,
1.922114380e-02,
1.338902265e-01,
-4.241160676e-02,
-7.853499800e-02,
5.532230437e-02,
-5.541120842e-02,
1.288264543e-01,
4.070344940e-02,
-1.138956770e-01,
-1.597247459e-02,
8.091408014e-02,
-1.192986965e-01,
1.257579327e-01,
-3.580120951e-02,
1.301874816e-01,
7.076162845e-02,
-3.345713764e-02,
6.159345806e-02,
-7.871156931e-02,
-6.320153922e-02,
-3.772414476e-02,
-3.182239085e-02,
1.233880892e-01,
-9.704401344e-02,
1.332157850e-01,
5.590588320e-03,
7.709701359e-02,
1.057615131e-01,
-1.216897741e-01,
3.826030344e-02,
-1.250724345e-01,
5.512171984e-02,
1.308367997e-01,
-5.425563082e-02,
-2.466958016e-02,
-1.045016572e-01,
4.380956292e-02,
-9.251779318e-02,
1.020178422e-01,
-4.982474819e-02,
-2.177362330e-02,
-8.637520671e-02,
-1.457508355e-01,
-1.052575111e-01,
9.553231299e-02,
-9.397353232e-02,
-2.727927873e-03,
-1.323502809e-01,
1.855010539e-02,
-1.335500181e-01,
-8.228725195e-02,
5.443151668e-02,
-1.024684533e-01,
-1.661887020e-02,
-7.582509518e-02,
-8.856185712e-03,
4.008799046e-02,
-5.390679091e-02,
1.307594031e-01,
-2.376671135e-02,
9.612213820e-03,
-4.021308944e-02,
5.208575353e-02,
1.469738781e-01,
1.305828243e-01,
-2.722977102e-02,
-6.318088621e-02,
-1.068681702e-01,
-7.852827758e-02,
-6.322737038e-02,
-1.273166835e-01,
8.369120955e-02,
1.061528176e-01,
8.753510565e-02,
6.947190315e-02,
-1.065352187e-01,
6.103928387e-02,
-1.213907376e-01,
-3.608048335e-02,
-7.432744652e-02,
7.507181913e-02,
1.367564052e-01,
8.958243579e-02,
4.573404416e-02,
1.323272586e-01,
-1.666504331e-02,
-1.043873429e-01,
7.772850245e-02,
-3.012335487e-02,
-1.285049468e-01,
-1.261257678e-01,
4.185087234e-02,
4.414324183e-03,
1.013967469e-01,
1.258852631e-01,
-8.991461992e-02,
-9.730863571e-02,
2.898303792e-03,
5.319307745e-02,
1.169163585e-01,
7.873658091e-02,
8.052043617e-02,
4.939525202e-02,
-4.036874697e-02,
4.352753609e-02,
1.055888757e-01,
7.763063163e-02,
5.750281364e-02,
-9.460625798e-02,
1.092135906e-01,
1.218098775e-01,
1.402432472e-01,
-8.987078816e-02,
-3.468782455e-02,
5.162503570e-02,
-1.076049283e-01,
1.368839145e-01,
1.064523775e-02,
-9.808462113e-02,
8.805635571e-02,
-1.626345888e-02,
9.416726977e-02,
-2.814454585e-02,
-6.544160098e-02,
9.383617342e-02,
-8.060826361e-02,
1.217943355e-01,
-4.549297690e-02,
1.241855249e-01,
-8.294834197e-02,
6.932368129e-02,
-8.323442936e-02,
-3.766352311e-02,
-1.101903245e-01,
7.568388432e-02,
-2.480934560e-02,
-7.542022318e-02,
1.224650964e-01,
-6.285499036e-02,
1.986835524e-02,
-2.402074449e-02,
-6.662290543e-02,
-8.557274193e-02,
-6.131083146e-02,
-1.411455125e-01,
1.241357401e-01,
1.074948348e-02,
-1.437232085e-02,
4.561081901e-02,
7.547112554e-02,
1.311399639e-01,
-8.125486225e-02,
-9.028086066e-02,
-1.083515864e-02,
-6.515859812e-02,
-7.570565492e-02,
1.309892982e-01,
-5.135122314e-02,
-9.627652168e-02,
-5.158438906e-02,
-4.083706066e-02,
-8.782996982e-02,
-1.388720572e-01,
-7.090300322e-02,
-1.058963239e-01,
1.217125952e-01,
-1.173957214e-01,
1.255642027e-01,
-1.557673793e-02,
-1.320779175e-01,
1.306319833e-01,
6.063496321e-02,
3.142334148e-02,
6.687002722e-03,
-4.342624545e-02,
-3.600053117e-02,
6.507332623e-02,
1.281634569e-01,
-1.122681797e-01,
3.765996918e-02,
5.812489986e-02,
9.275624901e-02,
-6.003469229e-02,
-2.691353485e-02,
8.742425591e-02,
-1.068585664e-01,
5.661103502e-02,
-1.103374735e-01,
1.168189868e-01,
-9.607307613e-02,
8.598182350e-02,
-1.213079765e-01,
1.101597995e-01,
-1.646130718e-02,
-2.856834978e-02,
-5.428543687e-02,
-6.241098791e-02,
-1.265260279e-01,
5.010729283e-02,
-1.245967746e-01,
1.066231951e-01,
1.448529959e-01,
1.363187879e-01,
3.461004049e-02,
-2.181486227e-02,
7.181504369e-02,
-9.471329302e-02,
6.416527927e-02,
-1.159709841e-01,
2.179402113e-02,
8.330547810e-02,
8.917199820e-02,
-1.005697399e-01,
-6.403858215e-02,
7.506118715e-02,
1.416265517e-01,
-1.077622082e-02,
-3.435875103e-02,
5.264070630e-02,
-7.502375543e-02,
9.049791098e-02,
8.816082776e-02,
3.846534714e-02,
9.908933192e-02,
-4.883289337e-03,
-6.435237080e-02,
1.773094945e-02,
7.528179139e-02,
-6.772010773e-02,
-5.326342955e-02,
1.395380348e-01,
8.857631683e-02,
3.946595360e-03,
-7.156859338e-02,
-3.484802553e-03,
-1.346719116e-01,
1.354926638e-02,
-1.024001762e-01,
-1.221153587e-01,
-8.626926690e-02,
1.689561643e-02,
-8.444117755e-02,
-3.085930087e-02,
-1.385570019e-01,
-9.684447944e-02,
1.519502103e-01,
-8.380778879e-02,
1.512083262e-01,
1.408358961e-01,
5.497783422e-03,
3.714502975e-02,
-1.062250212e-01,
4.993224889e-02,
4.203964397e-02,
-9.961512685e-02,
9.280833602e-02,
-1.220063567e-01,
6.457583606e-02,
1.137905344e-01,
-6.939519942e-02,
8.659724146e-02,
8.627006412e-02,
1.363412850e-02,
-3.234069736e-04,
4.714773595e-02,
-4.359240085e-02,
-3.022800386e-02,
3.526163055e-03,
1.356627047e-01,
1.069145948e-01,
4.489894956e-02,
-1.430899650e-01,
-1.006490663e-01,
1.170078479e-02,
-6.104284432e-03,
-9.883219749e-02,
-3.690946102e-02,
-1.183295026e-01,
1.218565479e-01,
-7.135511935e-02,
-3.045122512e-02,
-2.037123218e-02,
1.213873699e-01,
1.582140103e-02,
-2.937230654e-02,
-3.171185777e-02,
-1.018904224e-01,
9.474681318e-02,
-1.113452688e-01,
1.117410585e-01,
3.244328871e-02,
-1.291448325e-01,
-4.987748805e-03,
-4.954960942e-02,
-2.002640069e-02,
-6.862021983e-02,
-6.565944105e-02,
6.976234913e-02,
-1.629168168e-03,
-7.562334090e-02,
1.204919368e-01,
1.791539229e-02,
7.541980594e-02,
-3.331538662e-02,
1.333063692e-01,
1.489264052e-02,
9.994723648e-02,
6.019066647e-02,
-1.110270694e-01,
-9.279564023e-02,
-3.108687513e-02,
7.283927500e-02,
-9.802144021e-02,
6.242672354e-02,
-1.369101088e-02,
8.897078782e-02,
7.870480418e-02,
1.279142946e-01,
9.748167358e-03,
7.084998488e-02,
7.597019523e-02,
5.251049250e-02,
-1.153206825e-01,
1.051622704e-01,
-2.252073400e-02,
-4.745450243e-02,
-1.054224372e-02,
3.820984066e-02,
-1.114229858e-01,
-1.357860211e-02,
1.106063202e-01,
-4.038771987e-02,
-7.913804799e-02,
2.696981095e-02,
1.737528481e-02,
1.260086745e-01,
-7.011637092e-02,
-6.230789423e-02,
8.232830092e-03,
1.070810184e-01,
-1.305437386e-01,
8.544341475e-02,
-6.673134118e-02,
-8.688265830e-02,
5.376071110e-02,
-1.097354963e-01,
-4.116338864e-02,
-1.048182994e-01,
1.122787371e-01,
5.371372402e-02,
-6.064638495e-03,
-1.806264371e-02,
4.005843308e-03,
-2.434599027e-02,
9.935089946e-02,
-1.355842799e-01,
-9.240037203e-02,
-1.141283140e-01,
3.002726287e-02,
-1.919369400e-02,
8.970826864e-02,
1.363724172e-01,
2.570991404e-02,
-6.900770962e-02,
3.152848035e-02,
7.405489683e-02,
-1.277566552e-01,
-8.890020661e-03,
-4.461517558e-02,
-8.838081360e-02,
-2.216564119e-02,
3.663188219e-02,
-1.149223074e-01,
2.403522097e-02,
2.418824099e-02,
-1.094775945e-01,
-1.116696671e-01,
2.936567552e-02,
9.042888135e-02,
-4.430104047e-02,
5.409414694e-02,
6.870744377e-02,
3.118089400e-02,
-3.848607466e-02,
-3.189268336e-02,
1.296004653e-01,
-2.826795168e-02,
-1.179173961e-01,
-1.123962551e-01,
1.943381503e-02,
-1.048190221e-01,
-4.483151063e-02,
-3.100799397e-02,
-1.142992899e-01,
-1.038085818e-01,
-1.090975180e-01,
1.126268134e-01,
-3.991185874e-02,
-2.158982866e-02,
-1.012047157e-01,
4.407457262e-02,
9.401877224e-02,
3.444020823e-02,
-1.520240754e-01,
-7.843095809e-02,
-2.833893523e-02,
-6.404338032e-02,
1.318847411e-03,
-1.353247613e-01,
9.612520039e-02,
1.396803856e-01,
1.299442798e-01,
5.460096058e-03,
1.000462100e-02,
6.364016980e-02,
1.749885082e-02,
4.796605930e-02,
2.710250206e-02,
6.799326278e-03,
-2.533046901e-02,
-4.939620197e-02,
-9.948106110e-02,
-7.716138661e-02,
-1.619001664e-02,
1.337557472e-02,
4.346404225e-02,
-6.059402227e-02,
-9.220813215e-02,
1.232138798e-01,
9.802043438e-02,
1.268291175e-01,
2.289870009e-02,
-1.598540321e-02,
1.124388725e-01,
-8.627179079e-03,
-7.824413478e-02,
-1.187877730e-01,
2.244399674e-02,
9.335757047e-02,
-2.886643168e-03,
1.025927588e-01,
-5.266146734e-02,
-7.017087936e-02,
6.575378776e-02,
-1.083881333e-01,
-3.940691799e-02,
9.808246046e-02,
-6.553854048e-02,
-1.016505063e-01,
-9.952475131e-02,
2.025104500e-02,
1.179112270e-01,
5.086393561e-03,
6.464828551e-02,
1.022294760e-01,
-8.582482487e-02,
5.657048523e-02,
7.255633175e-02,
1.192576885e-01,
1.399351358e-01,
2.232047729e-02,
-1.167684142e-02,
9.905587882e-03,
-8.468718827e-02,
1.250080615e-01,
-6.188559532e-02,
1.179233342e-01,
-1.084312201e-01,
-3.353013843e-02,
-1.029034555e-01,
1.224723756e-01,
-5.307956412e-02,
-4.306582361e-02,
-1.513381395e-02,
-1.160768867e-01,
-6.794067472e-02,
7.000148296e-02,
-1.002951264e-01,
-4.500027746e-02,
-3.806059808e-02,
-1.527851797e-03,
9.095319360e-02,
-6.530160457e-02,
7.956811041e-02,
-6.993843615e-02,
-1.235838532e-01,
3.745164350e-02,
-3.254922107e-02,
9.999126941e-02,
4.733609408e-02,
9.270641208e-02,
7.418830693e-02,
5.894950405e-02,
1.298352331e-01,
-1.201269180e-01,
4.659170285e-02,
-8.927636594e-02,
6.970755639e-04,
-1.578472853e-01,
1.332412809e-01,
1.285766512e-01,
1.097844616e-01,
-7.033095509e-02,
8.752133697e-02,
-8.860556036e-02,
4.998986796e-02,
-3.947351128e-02,
1.470740736e-01,
5.647078902e-02,
-1.149388477e-01,
2.761283144e-02,
7.738374919e-02,
-1.182296649e-01,
-3.861722723e-02,
1.045264527e-01,
-1.171075702e-01,
1.478740480e-02,
4.588443320e-03,
9.963575751e-02,
8.355514705e-02,
1.108464450e-01,
3.907204419e-02,
8.862411231e-02,
1.163962260e-01,
-7.686139643e-02,
2.221256867e-02,
-7.260029763e-02,
3.908811137e-02,
-2.611745335e-02,
1.366886031e-02,
-1.195031852e-01,
-2.534013242e-02,
-1.042780727e-01,
-9.263751097e-03,
1.462629884e-01,
-1.497634947e-01,
-6.952147186e-02,
-6.918136775e-02,
-1.404998302e-01,
-9.164465964e-02,
9.771355242e-02,
1.260561496e-01,
3.349186853e-02,
-4.772410169e-02,
4.038915411e-02,
2.939861640e-02,
-6.689483672e-02,
1.536976248e-01,
-1.055352762e-01,
1.282929182e-01,
-6.857720762e-02,
4.409082234e-02,
-8.451780677e-02,
1.371506453e-01,
7.059126347e-02,
1.449477114e-02,
1.770333759e-02,
1.084703580e-01,
-1.729529537e-02,
-5.104247481e-02,
7.525192946e-02,
5.049077794e-02,
1.462938637e-01,
-6.538048387e-02,
-1.278035492e-01,
1.377188563e-01,
-1.134305820e-01,
-6.288730353e-02,
-8.668947220e-02,
6.035896018e-03,
4.240074754e-02,
1.049099639e-01,
-2.805157751e-02,
8.578636497e-02,
2.839702368e-02,
-5.223607179e-03,
1.148208305e-01,
5.084180459e-02,
-1.306046993e-01,
4.193692654e-02,
-1.236667335e-01,
-8.393539488e-02,
1.605377495e-01,
4.731687903e-02,
5.788454413e-02,
4.041465931e-03,
-5.658842623e-02,
-2.752622589e-02,
-1.078279689e-02,
-2.176211774e-02,
9.802354127e-02,
-4.539877176e-02,
5.856604548e-05,
9.754925966e-03,
1.330908090e-01,
5.048716813e-02,
-1.197514459e-01,
1.236082688e-01,
-7.467816770e-02,
1.351848543e-01,
1.216754019e-01,
-1.249414161e-01,
6.344529986e-02,
-9.413808584e-02,
-1.282367110e-01,
2.330714092e-02,
3.950885963e-03,
1.378400326e-01,
-1.378742456e-01,
-2.039156854e-02,
-9.728658199e-02,
-8.803165518e-03,
-1.484830678e-01,
1.017726138e-01,
8.189415187e-02,
-1.369576454e-01,
8.155787736e-02,
-9.133328497e-02,
5.073551461e-02,
5.985533819e-02,
-1.126194596e-01,
-6.316240877e-03,
4.652661085e-02,
6.191833317e-02,
-5.189562682e-03,
3.771825135e-02,
1.113410667e-01,
-1.433097869e-01,
1.277924776e-01,
-5.859399959e-02,
7.434745133e-02,
-1.626880839e-02,
-4.979025573e-02,
4.287727177e-02,
9.730029106e-02,
-2.464219555e-02,
1.523754448e-01,
-5.063959397e-03,
-5.618365481e-02,
4.638436809e-02,
3.360896558e-02,
3.543216735e-02,
-3.996982425e-02,
-4.912903905e-02,
9.767996520e-02,
2.817452140e-02,
-8.360303938e-02,
1.913959533e-02,
-4.969519377e-02,
-9.357707947e-02,
-7.921505719e-02,
3.622458130e-02,
-5.744204298e-02,
1.309157610e-01,
6.911096722e-02,
3.292826191e-02,
-1.389984637e-01,
-5.080799758e-02,
1.292084437e-02,
3.106595576e-02,
4.087218549e-03,
8.634734899e-02,
1.058195811e-02,
-9.003963321e-02,
8.881156333e-03,
-1.181498021e-01,
-8.341521770e-02,
-1.396506727e-01,
-1.333373934e-01,
6.567113847e-02,
5.125728250e-02,
7.537908107e-02,
2.732337825e-02,
7.014513016e-02,
7.789015770e-02,
-1.082205120e-02,
-9.565782733e-03,
2.966736443e-02,
-8.151783049e-02,
1.070935950e-01,
-1.177944764e-01,
1.267241221e-02,
-9.293252230e-02,
1.185968444e-01,
-1.015093401e-01,
-3.809592873e-02,
-1.134395078e-01,
1.275898218e-01,
3.572677076e-02,
-1.051065251e-01,
9.227622300e-02,
-5.268516392e-02,
1.220420748e-01,
2.360242233e-02,
1.121246666e-01,
-3.974059224e-02,
-1.348532736e-02,
1.227474511e-01,
-8.247399330e-02,
-6.689898670e-02,
1.458042413e-01,
-1.160945818e-01,
5.767597631e-02,
-9.455579519e-02,
8.206880093e-02,
-7.490251958e-02,
-1.467104554e-01,
4.731727019e-02,
-1.146036312e-01,
-2.136971615e-02,
-5.633326992e-02,
-9.483492933e-03,
1.079448909e-01,
2.390021086e-02,
9.203628451e-02,
1.326815039e-01,
-8.218774945e-02,
8.763124235e-03,
2.927841153e-03,
9.655307233e-02,
9.005109966e-02,
-9.675631672e-02,
-1.317052841e-01,
-7.265180349e-02,
1.164595336e-01,
-1.233598962e-02,
-1.070607640e-02,
1.293067355e-02,
-1.300052702e-01,
-1.631393470e-02,
7.833813876e-02,
1.877637766e-02,
1.324748248e-01,
-1.056104898e-02,
5.160680413e-02,
-3.388155252e-03,
4.380516708e-02,
-3.115177155e-02,
1.503280550e-01,
1.301878691e-01,
5.967660621e-02,
-2.254659776e-03,
1.384502947e-01,
-2.593447827e-02,
-2.034719847e-02,
2.533067577e-02,
-9.407954663e-02,
-1.083795279e-01,
8.683570474e-02,
-7.000334561e-02,
6.814996246e-03,
-1.512010954e-02,
-1.294788718e-01,
6.642094254e-02,
1.090674326e-01,
1.462446898e-02,
1.016893908e-01,
4.023035988e-02,
-3.335852921e-02,
7.283078134e-02,
-1.013799310e-01,
5.727223307e-02,
3.700535977e-03,
-1.103527173e-01,
-1.002753302e-01,
-2.984332293e-02,
-7.938605547e-02,
-1.028115600e-01,
3.683846444e-02,
-3.942579404e-02,
9.032612294e-02,
2.824836178e-03,
1.370064914e-02,
5.324147176e-03,
7.693011314e-02,
-8.253378794e-03,
-2.267572284e-02,
-1.385222822e-01,
-9.842982143e-02,
-4.008069262e-02,
9.890235960e-03,
1.051430553e-01,
-1.044766698e-02,
-1.386902183e-01,
4.192524403e-02,
6.858571619e-02,
-1.287414879e-01,
9.831644595e-02,
-6.407720596e-02,
-1.226141080e-01,
-3.764405474e-02,
-4.315215349e-02,
-8.679321408e-02,
-2.550814487e-02,
-9.466981143e-02,
-1.446900219e-01,
-6.977378577e-02,
4.955861717e-02,
1.214653850e-01,
-7.027358562e-02,
1.455056220e-01,
-1.340887626e-03,
9.457392991e-02,
-1.286744177e-01,
-9.754051268e-02,
-7.653675973e-02,
-1.016663536e-01,
1.324226111e-01,
-3.391743824e-02,
1.049927846e-01,
6.239002571e-03,
-8.105627447e-02,
1.002324149e-01,
1.325605214e-01,
1.138508171e-01,
1.944508776e-02,
8.839975297e-02,
-1.251411587e-01,
4.235005751e-02,
1.836664602e-02,
-5.102426559e-02,
1.038874537e-01,
-8.413321525e-02,
4.319184646e-02,
-9.982682019e-02,
1.018690318e-01,
-6.283765193e-03,
-1.189066991e-01,
-8.803977817e-02,
-1.062894538e-01,
4.131229070e-04,
7.711341977e-02,
-8.900431544e-02,
-7.963726670e-02,
1.914595626e-02,
-4.373757169e-02,
-2.916120552e-02,
1.383753121e-01,
1.857101358e-02,
-7.465866208e-02,
-4.778863490e-02,
7.407779992e-02,
1.331072897e-01,
2.038734592e-02,
-9.986592084e-02,
-8.855523169e-02,
-9.462038986e-03,
-6.409718841e-02,
4.112166911e-02,
1.044197381e-01,
2.146947943e-02,
1.013136283e-01,
3.628392518e-02,
6.204936281e-02,
8.085437864e-02,
-3.343997058e-03,
9.735421836e-02,
6.481114030e-02,
-8.984170854e-02,
-6.458562613e-02,
-6.116068736e-02,
-1.700892486e-02,
6.387221068e-02,
1.176775992e-01,
1.145261899e-01,
6.011255551e-03,
-1.346578300e-01,
1.439599600e-02,
1.279183924e-01,
-1.031604037e-01,
2.018443123e-02,
2.712311037e-02,
-4.228891805e-02,
1.407824159e-01,
-7.691383362e-02,
-1.369728446e-01,
1.265363246e-01,
-9.386349469e-02,
-4.473098740e-02,
-6.286535412e-03,
9.181542695e-02,
3.890004382e-02,
4.762997478e-02,
1.106519066e-02,
-1.278867275e-01,
1.000403985e-01,
-1.089453995e-01,
2.126655541e-03,
7.046511769e-02,
8.235288411e-02,
-7.631285489e-02,
-7.132051140e-02,
-1.168133914e-01,
-8.629750460e-02,
-3.158585727e-02,
-2.938271686e-02,
2.897910774e-02,
7.234095037e-02,
4.927573353e-02,
2.097150311e-02,
-7.784307748e-02,
-6.437892467e-02,
-7.841056585e-02,
4.073527828e-02,
5.065209419e-02,
-7.030545920e-02,
-5.526551604e-02,
-1.220005914e-03,
-1.088895127e-01,
9.457319230e-02,
-1.203770638e-01,
5.084021017e-02,
1.275145449e-02,
-1.106201559e-01,
1.792123541e-02,
6.598259509e-02,
-1.078073308e-01,
-7.950565964e-02,
-1.264196634e-01,
1.401581317e-01,
-2.628860623e-02,
-5.925740674e-02,
9.596334398e-02,
4.403021187e-02,
1.288152039e-01,
-1.258800030e-01,
-2.317158505e-02,
3.221159801e-03,
-5.121180322e-03,
-7.942575961e-02,
-1.731698774e-02,
-7.464308292e-03,
5.965412781e-02,
2.701587230e-02,
-1.070326418e-01,
5.576385558e-02,
-5.116774142e-02,
-1.430422068e-01,
3.914684523e-03,
9.938628227e-02,
3.881198540e-02,
8.798380196e-02,
1.006406844e-01,
-1.271910667e-01,
8.612910286e-03,
5.957358330e-02,
-7.200275362e-02,
-1.496511996e-01,
3.418803960e-02,
-9.700233489e-02,
6.956127286e-02,
-5.676571652e-02,
-4.538612068e-02,
9.983348101e-02,
1.015221775e-01,
-1.187590584e-01,
-1.277844310e-01,
1.397170424e-01,
2.233042568e-02,
-5.815669894e-02,
2.101469040e-02,
-2.750233375e-02,
5.063948408e-02,
-1.745100692e-02,
-9.591987729e-02,
6.745048799e-03,
-1.451219618e-02,
-4.519388452e-02,
3.920336440e-02,
2.002947591e-02,
1.443917863e-02,
6.969372625e-04,
-2.423944138e-02,
9.531668574e-02,
-2.847912535e-02,
3.744446486e-02,
-3.234626492e-03,
-3.027243353e-02,
5.017670244e-02,
2.503066696e-02,
1.340622157e-01,
-1.027383208e-01,
-6.749965996e-02,
1.166490838e-01,
1.185160875e-01,
6.981965154e-02,
3.283347934e-03,
1.045294255e-01,
-6.558302045e-02,
-3.641159832e-02,
-6.088337395e-03,
-2.058697678e-02,
3.823557869e-02,
-6.771900505e-02,
4.077704251e-02,
-6.700289249e-02,
-2.510488220e-02,
-9.536449797e-03,
6.150174886e-02,
-2.952582389e-02,
-8.896469325e-02,
-7.866709679e-02,
-1.077150553e-01,
-9.615800530e-02,
2.045619860e-02,
1.398143768e-01,
-1.161090508e-01,
1.137133874e-02,
-1.104476675e-01,
-4.932868853e-02,
-1.112703606e-02,
-4.235888645e-02,
7.519744337e-02,
-9.483279288e-02,
7.557438314e-02,
-5.498544499e-02,
1.292479634e-01,
-1.254747808e-01,
6.666765362e-02,
-1.281821877e-01,
-9.017190896e-03,
9.975339472e-02,
7.868866622e-02,
-4.240732640e-02,
-8.080124855e-02,
1.014519017e-02,
-3.957818262e-03,
-3.063548729e-02,
-1.301506311e-01,
-5.451321229e-02,
3.929644823e-02,
1.460502595e-01,
1.264140308e-01,
3.450233489e-02,
